{"learner":{"attributes":{"scikit_learn":"{\"_estimator_type\": \"regressor\"}"},"feature_names":["month","day_of_week","crs_dep_time","crs_arr_time","NY_PRCP","NY_AWND","NY_TMP_C","MIA_CIG","MIA_VIS","MIA_TMP_C","MIA_WND_sin","MIA_WND_cos"],"feature_types":["int","int","int","int","float","float","float","float","float","float","float","float"],"gradient_booster":{"model":{"cats":{"enc":[],"feature_segments":[],"sorted_idx":[]},"gbtree_model_param":{"num_parallel_tree":"1","num_trees":"700"},"iteration_indptr":[0,1,2,3,4,5,6,7,8,9,10,11,12,13,14,15,16,17,18,19,20,21,22,23,24,25,26,27,28,29,30,31,32,33,34,35,36,37,38,39,40,41,42,43,44,45,46,47,48,49,50,51,52,53,54,55,56,57,58,59,60,61,62,63,64,65,66,67,68,69,70,71,72,73,74,75,76,77,78,79,80,81,82,83,84,85,86,87,88,89,90,91,92,93,94,95,96,97,98,99,100,101,102,103,104,105,106,107,108,109,110,111,112,113,114,115,116,117,118,119,120,121,122,123,124,125,126,127,128,129,130,131,132,133,134,135,136,137,138,139,140,141,142,143,144,145,146,147,148,149,150,151,152,153,154,155,156,157,158,159,160,161,162,163,164,165,166,167,168,169,170,171,172,173,174,175,176,177,178,179,180,181,182,183,184,185,186,187,188,189,190,191,192,193,194,195,196,197,198,199,200,201,202,203,204,205,206,207,208,209,210,211,212,213,214,215,216,217,218,219,220,221,222,223,224,225,226,227,228,229,230,231,232,233,234,235,236,237,238,239,240,241,242,243,244,245,246,247,248,249,250,251,252,253,254,255,256,257,258,259,260,261,262,263,264,265,266,267,268,269,270,271,272,273,274,275,276,277,278,279,280,281,282,283,284,285,286,287,288,289,290,291,292,293,294,295,296,297,298,299,300,301,302,303,304,305,306,307,308,309,310,311,312,313,314,315,316,317,318,319,320,321,322,323,324,325,326,327,328,329,330,331,332,333,334,335,336,337,338,339,340,341,342,343,344,345,346,347,348,349,350,351,352,353,354,355,356,357,358,359,360,361,362,363,364,365,366,367,368,369,370,371,372,373,374,375,376,377,378,379,380,381,382,383,384,385,386,387,388,389,390,391,392,393,394,395,396,397,398,399,400,401,402,403,404,405,406,407,408,409,410,411,412,413,414,415,416,417,418,419,420,421,422,423,424,425,426,427,428,429,430,431,432,433,434,435,436,437,438,439,440,441,442,443,444,445,446,447,448,449,450,451,452,453,454,455,456,457,458,459,460,461,462,463,464,465,466,467,468,469,470,471,472,473,474,475,476,477,478,479,480,481,482,483,484,485,486,487,488,489,490,491,492,493,494,495,496,497,498,499,500,501,502,503,504,505,506,507,508,509,510,511,512,513,514,515,516,517,518,519,520,521,522,523,524,525,526,527,528,529,530,531,532,533,534,535,536,537,538,539,540,541,542,543,544,545,546,547,548,549,550,551,552,553,554,555,556,557,558,559,560,561,562,563,564,565,566,567,568,569,570,571,572,573,574,575,576,577,578,579,580,581,582,583,584,585,586,587,588,589,590,591,592,593,594,595,596,597,598,599,600,601,602,603,604,605,606,607,608,609,610,611,612,613,614,615,616,617,618,619,620,621,622,623,624,625,626,627,628,629,630,631,632,633,634,635,636,637,638,639,640,641,642,643,644,645,646,647,648,649,650,651,652,653,654,655,656,657,658,659,660,661,662,663,664,665,666,667,668,669,670,671,672,673,674,675,676,677,678,679,680,681,682,683,684,685,686,687,688,689,690,691,692,693,694,695,696,697,698,699,700],"tree_info":[0,0,0,0,0,0,0,0,0,0,0,0,0,0,0,0,0,0,0,0,0,0,0,0,0,0,0,0,0,0,0,0,0,0,0,0,0,0,0,0,0,0,0,0,0,0,0,0,0,0,0,0,0,0,0,0,0,0,0,0,0,0,0,0,0,0,0,0,0,0,0,0,0,0,0,0,0,0,0,0,0,0,0,0,0,0,0,0,0,0,0,0,0,0,0,0,0,0,0,0,0,0,0,0,0,0,0,0,0,0,0,0,0,0,0,0,0,0,0,0,0,0,0,0,0,0,0,0,0,0,0,0,0,0,0,0,0,0,0,0,0,0,0,0,0,0,0,0,0,0,0,0,0,0,0,0,0,0,0,0,0,0,0,0,0,0,0,0,0,0,0,0,0,0,0,0,0,0,0,0,0,0,0,0,0,0,0,0,0,0,0,0,0,0,0,0,0,0,0,0,0,0,0,0,0,0,0,0,0,0,0,0,0,0,0,0,0,0,0,0,0,0,0,0,0,0,0,0,0,0,0,0,0,0,0,0,0,0,0,0,0,0,0,0,0,0,0,0,0,0,0,0,0,0,0,0,0,0,0,0,0,0,0,0,0,0,0,0,0,0,0,0,0,0,0,0,0,0,0,0,0,0,0,0,0,0,0,0,0,0,0,0,0,0,0,0,0,0,0,0,0,0,0,0,0,0,0,0,0,0,0,0,0,0,0,0,0,0,0,0,0,0,0,0,0,0,0,0,0,0,0,0,0,0,0,0,0,0,0,0,0,0,0,0,0,0,0,0,0,0,0,0,0,0,0,0,0,0,0,0,0,0,0,0,0,0,0,0,0,0,0,0,0,0,0,0,0,0,0,0,0,0,0,0,0,0,0,0,0,0,0,0,0,0,0,0,0,0,0,0,0,0,0,0,0,0,0,0,0,0,0,0,0,0,0,0,0,0,0,0,0,0,0,0,0,0,0,0,0,0,0,0,0,0,0,0,0,0,0,0,0,0,0,0,0,0,0,0,0,0,0,0,0,0,0,0,0,0,0,0,0,0,0,0,0,0,0,0,0,0,0,0,0,0,0,0,0,0,0,0,0,0,0,0,0,0,0,0,0,0,0,0,0,0,0,0,0,0,0,0,0,0,0,0,0,0,0,0,0,0,0,0,0,0,0,0,0,0,0,0,0,0,0,0,0,0,0,0,0,0,0,0,0,0,0,0,0,0,0,0,0,0,0,0,0,0,0,0,0,0,0,0,0,0,0,0,0,0,0,0,0,0,0,0,0,0,0,0,0,0,0,0,0,0,0,0,0,0,0,0,0,0,0,0,0,0,0,0,0,0,0,0,0,0,0,0,0,0,0,0,0,0,0,0,0,0,0,0,0,0,0,0,0,0,0,0,0,0,0,0,0,0,0,0,0,0,0,0,0,0,0,0,0,0,0,0,0,0,0,0,0,0,0,0,0,0,0,0,0,0,0,0,0,0,0,0,0,0,0,0,0,0,0,0,0,0,0,0,0,0,0,0,0,0,0,0,0,0,0,0,0,0,0,0,0,0,0,0,0,0,0,0,0,0,0,0,0,0,0,0],"trees":[{"base_weights":[2.0079646E-7,1.6978477E1,-6.451179E0,1.4694624E1,1.2884596E2,-1.34099865E1,3.169657E0,9.2365974E-1,2.9704803E1,5.6944473E1,1.6819057E2,-1.5367825E1,-3.255099E0,-6.117666E0,2.4315058E1,5.1310344E0,-4.588863E-2,8.38205E-1,2.5456054E0,8.979952E-1,7.0960917E0,4.845687E-1,8.940986E0,8.850066E-1,-7.939752E-1,-5.844627E-1,1.5202029E-1,6.3245915E-2,-7.1282214E-1,5.039173E0,9.736231E-1],"categories":[],"categories_nodes":[],"categories_segments":[],"categories_sizes":[],"default_left":[0,0,0,0,0,0,0,0,0,0,0,0,0,0,0,0,0,0,0,0,0,0,0,0,0,0,0,0,0,0,0],"id":0,"left_children":[1,3,5,7,9,11,13,15,17,19,21,23,25,27,29,-1,-1,-1,-1,-1,-1,-1,-1,-1,-1,-1,-1,-1,-1,-1,-1],"loss_changes":[4.7974666E5,3.0622628E5,2.1254034E5,2.4450416E5,5.8316938E4,3.6571906E4,2.6192884E5,1.1582593E5,1.5447812E5,3.0579156E4,2.3537625E4,2.6405781E4,1.5911621E4,5.571702E4,1.4875188E5,0E0,0E0,0E0,0E0,0E0,0E0,0E0,0E0,0E0,0E0,0E0,0E0,0E0,0E0,0E0,0E0],"parents":[2147483647,0,0,1,1,2,2,3,3,4,4,5,5,6,6,7,7,8,8,9,9,10,10,11,11,12,12,13,13,14,14],"right_children":[2,4,6,8,10,12,14,16,18,20,22,24,26,28,30,-1,-1,-1,-1,-1,-1,-1,-1,-1,-1,-1,-1,-1,-1,-1,-1],"split_conditions":[-5.971586E-1,1.59E0,1.546E3,1.22E3,1.437E3,8E-2,2E1,-1.6666666E0,2E-2,1.88E0,1.3940242E4,-3.6111112E0,1.028E3,2.44E1,2.0277779E1,5.1310344E0,-4.588863E-2,8.38205E-1,2.5456054E0,8.979952E-1,7.0960917E0,4.845687E-1,8.940986E0,8.850066E-1,-7.939752E-1,-5.844627E-1,1.5202029E-1,6.3245915E-2,-7.1282214E-1,5.039173E0,9.736231E-1],"split_indices":[11,4,3,2,3,4,6,6,4,4,7,6,3,9,6,0,0,0,0,0,0,0,0,0,0,0,0,0,0,0,0],"split_type":[0,0,0,0,0,0,0,0,0,0,0,0,0,0,0,0,0,0,0,0,0,0,0,0,0,0,0,0,0,0,0],"sum_hessian":[4.378E3,1.205E3,3.173E3,1.182E3,2.3E1,1.841E3,1.332E3,6.17E2,5.65E2,9E0,1.4E1,1.543E3,2.98E2,9.26E2,4.06E2,1E1,6.07E2,3.52E2,2.13E2,7E0,2E0,1E0,1.3E1,2.3E1,1.52E3,1.27E2,1.71E2,4.86E2,4.4E2,2.3E1,3.83E2],"tree_param":{"num_deleted":"0","num_feature":"12","num_nodes":"31","size_leaf_vector":"1"}},{"base_weights":[7.058354E-3,-6.274429E0,1.6148478E1,-1.2225358E1,1.9341489E0,3.5476376E1,4.5508466E0,-8.309754E0,-1.7082043E1,-5.6004806E0,1.6369892E1,3.0581291E1,1.23129486E2,-6.5411606E0,2.2357832E1,-9.9586767E-1,-3.088034E-1,-1.048795E-1,-8.987827E-1,8.194901E-1,-4.825395E-1,4.7977133E0,5.9553224E-1,6.5122616E-1,2.4491801E0,2.7448328E0,8.020471E0,-6.3941115E-1,2.2509335E-1,6.1070734E-1,3.5908802E0],"categories":[],"categories_nodes":[],"categories_segments":[],"categories_sizes":[],"default_left":[0,0,0,0,0,0,0,0,0,0,0,0,0,0,0,0,0,0,0,0,0,0,0,0,0,0,0,0,0,0,0],"id":1,"left_children":[1,3,5,7,9,11,13,15,17,19,21,23,25,27,29,-1,-1,-1,-1,-1,-1,-1,-1,-1,-1,-1,-1,-1,-1,-1,-1],"loss_changes":[4.440974E5,1.5404347E5,2.748802E5,3.4620875E4,1.4431802E5,1.9360638E5,1.5183794E5,2.4990695E4,1.0875359E4,7.782498E4,1.6033044E5,1.4055019E5,5.2243188E4,3.2757156E4,1.471256E5,0E0,0E0,0E0,0E0,0E0,0E0,0E0,0E0,0E0,0E0,0E0,0E0,0E0,0E0,0E0,0E0],"parents":[2147483647,0,0,1,1,2,2,3,3,4,4,5,5,6,6,7,7,8,8,9,9,10,10,11,11,12,12,13,13,14,14],"right_children":[2,4,6,8,10,12,14,16,18,20,22,24,26,28,30,-1,-1,-1,-1,-1,-1,-1,-1,-1,-1,-1,-1,-1,-1,-1,-1],"split_conditions":[3E-2,1.546E3,-5.971586E-1,8.660254E-1,2E1,1.59E0,1.407E3,7.61E0,1.6666666E0,-6.4278764E-1,2.0277779E1,1.505E3,1.437E3,8E0,2.4722221E1,-9.9586767E-1,-3.088034E-1,-1.048795E-1,-8.987827E-1,8.194901E-1,-4.825395E-1,4.7977133E0,5.9553224E-1,6.5122616E-1,2.4491801E0,2.7448328E0,8.020471E0,-6.3941115E-1,2.2509335E-1,6.1070734E-1,3.5908802E0],"split_indices":[4,3,11,10,6,4,2,5,6,11,6,3,3,0,6,0,0,0,0,0,0,0,0,0,0,0,0,0,0,0,0],"split_type":[0,0,0,0,0,0,0,0,0,0,0,0,0,0,0,0,0,0,0,0,0,0,0,0,0,0,0,0,0,0,0],"sum_hessian":[4.378E3,3.152E3,1.226E3,1.827E3,1.325E3,4.59E2,7.67E2,1.013E3,8.14E2,8.71E2,4.54E2,4.36E2,2.3E1,4.73E2,2.94E2,1.56E2,8.57E2,4.6E1,7.68E2,1.35E2,7.36E2,2.3E1,4.31E2,2.24E2,2.12E2,9E0,1.4E1,3.02E2,1.71E2,2.45E2,4.9E1],"tree_param":{"num_deleted":"0","num_feature":"12","num_nodes":"31","size_leaf_vector":"1"}},{"base_weights":[1.1518123E-2,-5.959622E0,1.5355441E1,-1.1615354E1,1.841763E0,3.3732697E1,4.328236E0,-7.895553E0,-1.6229172E1,1.3636E1,-6.5091662E0,2.905932E1,1.1742157E2,-7.21814E0,1.9839283E1,-9.463914E-1,-2.9338124E-1,-9.974711E-2,-8.53902E-1,5.334539E-1,3.328519E0,-5.7658273E-1,3.0893883E-1,7.0497375E0,1.3053842E0,2.6213155E0,7.6461816E0,-6.3959646E-1,1.3739505E-1,5.137003E-1,3.579521E0],"categories":[],"categories_nodes":[],"categories_segments":[],"categories_sizes":[],"default_left":[0,0,0,0,0,0,0,0,0,0,0,0,0,0,0,0,0,0,0,0,0,0,0,0,0,0,0,0,0,0,0],"id":2,"left_children":[1,3,5,7,9,11,13,15,17,19,21,23,25,27,29,-1,-1,-1,-1,-1,-1,-1,-1,-1,-1,-1,-1,-1,-1,-1,-1],"loss_changes":[4.0129862E5,1.3913975E5,2.4850525E5,3.124489E4,1.3069026E5,1.7649822E5,1.3768923E5,2.2574824E4,9.8135625E3,8.566844E4,4.9585613E4,1.407006E5,4.736197E4,2.4532088E4,1.6162903E5,0E0,0E0,0E0,0E0,0E0,0E0,0E0,0E0,0E0,0E0,0E0,0E0,0E0,0E0,0E0,0E0],"parents":[2147483647,0,0,1,1,2,2,3,3,4,4,5,5,6,6,7,7,8,8,9,9,10,10,11,11,12,12,13,13,14,14],"right_children":[2,4,6,8,10,12,14,16,18,20,22,24,26,28,30,-1,-1,-1,-1,-1,-1,-1,-1,-1,-1,-1,-1,-1,-1,-1,-1],"split_conditions":[3E-2,1.546E3,-5.971586E-1,8.660254E-1,-2.2252093E-1,1.59E0,1.546E3,7.61E0,1.6666666E0,2.6944445E1,2E1,-2.5E0,1.437E3,8E0,2.4722221E1,-9.463914E-1,-2.9338124E-1,-9.974711E-2,-8.53902E-1,5.334539E-1,3.328519E0,-5.7658273E-1,3.0893883E-1,7.0497375E0,1.3053842E0,2.6213155E0,7.6461816E0,-6.3959646E-1,1.3739505E-1,5.137003E-1,3.579521E0],"split_indices":[4,3,11,10,11,4,3,5,6,6,6,6,3,0,6,0,0,0,0,0,0,0,0,0,0,0,0,0,0,0,0],"split_type":[0,0,0,0,0,0,0,0,0,0,0,0,0,0,0,0,0,0,0,0,0,0,0,0,0,0,0,0,0,0,0],"sum_hessian":[4.378E3,3.152E3,1.226E3,1.827E3,1.325E3,4.59E2,7.67E2,1.013E3,8.14E2,5.49E2,7.76E2,4.36E2,2.3E1,4.4E2,3.27E2,1.56E2,8.57E2,4.6E1,7.68E2,5.21E2,2.8E1,5.56E2,2.2E2,1E1,4.26E2,9E0,1.4E1,2.82E2,1.58E2,2.77E2,5E1],"tree_param":{"num_deleted":"0","num_feature":"12","num_nodes":"31","size_leaf_vector":"1"}},{"base_weights":[1.6335113E-2,1.4795693E1,-5.5992675E0,1.2811604E1,1.119783E2,-1.1570068E1,2.6556575E0,5.82163E-1,2.614196E1,-1.6610479E0,1.282916E2,-1.282435E1,1.3415797E0,-2.1286058E0,3.496181E1,2.5684636E0,-1.3702716E-1,7.449739E-1,2.2282321E0,-2.7203494E-1,7.062009E-2,8.078819E-2,6.72723E0,-9.178842E-1,-4.9667045E-1,1.7748013E0,-1.0414044E-1,-2.709069E-1,5.4007924E-1,9.308595E-1,3.4243038E0],"categories":[],"categories_nodes":[],"categories_segments":[],"categories_sizes":[],"default_left":[0,0,0,0,0,0,0,0,0,0,0,0,0,0,0,0,0,0,0,0,0,0,0,0,0,0,0,0,0,0,0],"id":3,"left_children":[1,3,5,7,9,11,13,15,17,19,21,23,25,27,29,-1,-1,-1,-1,-1,-1,-1,-1,-1,-1,-1,-1,-1,-1,-1,-1],"loss_changes":[3.6351797E5,2.311051E5,1.5647247E5,1.9284075E5,4.4705062E4,2.9848125E4,2.0610442E5,1.0442868E5,1.1656403E5,5.4150723E1,1.6416781E4,2.6675844E4,1.9255057E4,4.9483348E4,9.297091E4,0E0,0E0,0E0,0E0,0E0,0E0,0E0,0E0,0E0,0E0,0E0,0E0,0E0,0E0,0E0,0E0],"parents":[2147483647,0,0,1,1,2,2,3,3,4,4,5,5,6,6,7,7,8,8,9,9,10,10,11,11,12,12,13,13,14,14],"right_children":[2,4,6,8,10,12,14,16,18,20,22,24,26,28,30,-1,-1,-1,-1,-1,-1,-1,-1,-1,-1,-1,-1,-1,-1,-1,-1],"split_conditions":[-5.971586E-1,1.59E0,1.546E3,1.22E3,7.37E2,1.2E1,2.4444445E1,2.2222223E0,2E-2,7.06E2,1.3940242E4,9.17E0,-1.6666666E0,2E1,4E-2,2.5684636E0,-1.3702716E-1,7.449739E-1,2.2282321E0,-2.7203494E-1,7.062009E-2,8.078819E-2,6.72723E0,-9.178842E-1,-4.9667045E-1,1.7748013E0,-1.0414044E-1,-2.709069E-1,5.4007924E-1,9.308595E-1,3.4243038E0],"split_indices":[11,4,3,2,2,0,6,6,4,2,7,5,6,6,4,0,0,0,0,0,0,0,0,0,0,0,0,0,0,0,0],"split_type":[0,0,0,0,0,0,0,0,0,0,0,0,0,0,0,0,0,0,0,0,0,0,0,0,0,0,0,0,0,0,0],"sum_hessian":[4.378E3,1.205E3,3.173E3,1.182E3,2.3E1,1.841E3,1.332E3,6.17E2,5.65E2,3E0,2E1,1.678E3,1.63E2,1.161E3,1.71E2,3.7E1,5.8E2,3.52E2,2.13E2,1E0,2E0,1E0,1.9E1,5.74E2,1.104E3,1.4E1,1.49E2,9.26E2,2.35E2,1.16E2,5.5E1],"tree_param":{"num_deleted":"0","num_feature":"12","num_nodes":"31","size_leaf_vector":"1"}},{"base_weights":[1.9375669E-2,-5.487101E0,1.4169254E1,-1.0499754E1,1.7129056E0,-8.790474E0,2.1807112E1,-1.5061785E1,-7.482947E0,1.5327094E1,-5.0725603E0,5.0162453E1,-1.033325E1,4.0634922E1,1.0034486E1,9.620661E-1,-7.8512657E-1,4.0972714E0,-3.9785197E-1,3.1970718E0,4.3897173E-1,-3.304344E-1,2.054136E0,7.665523E-1,7.3495574E0,-9.647668E-1,-2.7042806E-1,1.7305895E0,5.7643933E0,-2.6908946E-1,1.112902E0],"categories":[],"categories_nodes":[],"categories_segments":[],"categories_sizes":[],"default_left":[0,0,0,0,0,0,0,0,0,0,0,0,0,0,0,0,0,0,0,0,0,0,0,0,0,0,0,0,0,0,0],"id":4,"left_children":[1,3,5,7,9,11,13,15,17,19,21,23,25,27,29,-1,-1,-1,-1,-1,-1,-1,-1,-1,-1,-1,-1,-1,-1,-1,-1],"loss_changes":[3.4127178E5,1.1381332E5,2.153623E5,2.5472281E4,1.1970804E5,2.844036E4,2.037344E5,1.6545062E4,4.8179445E4,1.3663031E5,6.1600363E4,2.4727908E4,1.3136285E4,1.5518394E5,1.0715467E5,0E0,0E0,0E0,0E0,0E0,0E0,0E0,0E0,0E0,0E0,0E0,0E0,0E0,0E0,0E0,0E0],"parents":[2147483647,0,0,1,1,2,2,3,3,4,4,5,5,6,6,7,7,8,8,9,9,10,10,11,11,12,12,13,13,14,14],"right_children":[2,4,6,8,10,12,14,16,18,20,22,24,26,28,30,-1,-1,-1,-1,-1,-1,-1,-1,-1,-1,-1,-1,-1,-1,-1,-1],"split_conditions":[3E-2,1.32E3,7.2E2,1.028E3,-3.4202015E-1,-2.777778E-1,-5.971586E-1,-3.6111112E0,9E3,1.51E3,2.6944445E1,3.5E-1,1.2E-1,3.06E1,6E0,9.620661E-1,-7.8512657E-1,4.0972714E0,-3.9785197E-1,3.1970718E0,4.3897173E-1,-3.304344E-1,2.054136E0,7.665523E-1,7.3495574E0,-9.647668E-1,-2.7042806E-1,1.7305895E0,5.7643933E0,-2.6908946E-1,1.112902E0],"split_indices":[4,2,2,3,11,6,11,6,8,2,6,4,4,9,0,0,0,0,0,0,0,0,0,0,0,0,0,0,0,0,0],"split_type":[0,0,0,0,0,0,0,0,0,0,0,0,0,0,0,0,0,0,0,0,0,0,0,0,0,0,0,0,0,0,0],"sum_hessian":[4.378E3,3.152E3,1.226E3,1.858E3,1.294E3,3.06E2,9.2E2,7.38E2,1.12E3,4.3E2,8.64E2,7E0,2.99E2,3.53E2,5.67E2,1.3E1,7.25E2,5E0,1.115E3,5E1,3.8E2,8.37E2,2.7E1,6E0,1E0,1.05E2,1.94E2,3.28E2,2.5E1,2.51E2,3.16E2],"tree_param":{"num_deleted":"0","num_feature":"12","num_nodes":"31","size_leaf_vector":"1"}},{"base_weights":[2.3991777E-2,-5.2098165E0,1.3473196E1,-9.972681E0,1.6313994E0,1.3426343E0,2.6826977E1,-1.4308455E1,-7.1054993E0,1.2566644E1,-6.0096445E0,5.9371998E1,-2.496237E0,1.3199107E1,6.479311E1,9.1739875E-1,-7.459243E-1,3.9265518E0,-3.779772E-1,2.619784E0,3.796501E-1,-3.5032123E-1,1.9071769E0,1.6537924E0,5.8986683E0,-1.7246397E-1,7.0780334E0,4.64425E-1,4.455337E0,9.813504E0,2.7149892E0],"categories":[],"categories_nodes":[],"categories_segments":[],"categories_sizes":[],"default_left":[0,0,0,0,0,0,0,0,0,0,0,0,0,0,0,0,0,0,0,0,0,0,0,0,0,0,0,0,0,0,0],"id":5,"left_children":[1,3,5,7,9,11,13,15,17,19,21,23,25,27,29,-1,-1,-1,-1,-1,-1,-1,-1,-1,-1,-1,-1,-1,-1,-1,-1],"loss_changes":[3.083104E5,1.0275294E5,1.987243E5,2.3008406E4,1.0828143E5,1.4361033E5,3.0130497E5,1.4995641E4,4.418128E4,1.0518701E5,3.384764E4,5.7737547E4,8.355013E4,1.2711251E5,2.0180575E5,0E0,0E0,0E0,0E0,0E0,0E0,0E0,0E0,0E0,0E0,0E0,0E0,0E0,0E0,0E0,0E0],"parents":[2147483647,0,0,1,1,2,2,3,3,4,4,5,5,6,6,7,7,8,8,9,9,10,10,11,11,12,12,13,13,14,14],"right_children":[2,4,6,8,10,12,14,16,18,20,22,24,26,28,30,-1,-1,-1,-1,-1,-1,-1,-1,-1,-1,-1,-1,-1,-1,-1,-1],"split_conditions":[3E-2,1.32E3,1.22E3,1.028E3,-3.2143947E-1,2.5E0,2.0833334E1,-3.6111112E0,9E3,1.51E3,2.125E1,2.33E1,3.13E0,1.7E0,6.93E0,9.1739875E-1,-7.459243E-1,3.9265518E0,-3.779772E-1,2.619784E0,3.796501E-1,-3.5032123E-1,1.9071769E0,1.6537924E0,5.8986683E0,-1.7246397E-1,7.0780334E0,4.64425E-1,4.455337E0,9.813504E0,2.7149892E0],"split_indices":[4,2,2,3,11,6,6,6,8,2,5,9,4,4,5,0,0,0,0,0,0,0,0,0,0,0,0,0,0,0,0],"split_type":[0,0,0,0,0,0,0,0,0,0,0,0,0,0,0,0,0,0,0,0,0,0,0,0,0,0,0,0,0,0,0],"sum_hessian":[4.378E3,3.152E3,1.226E3,1.858E3,1.294E3,6.43E2,5.83E2,7.38E2,1.12E3,5.32E2,7.62E2,3.9E1,6.04E2,4.3E2,1.53E2,1.3E1,7.25E2,5E0,1.115E3,5.8E1,4.74E2,7.46E2,1.6E1,2.8E1,1.1E1,6.01E2,3E0,4.1E2,2E1,1E1,1.43E2],"tree_param":{"num_deleted":"0","num_feature":"12","num_nodes":"31","size_leaf_vector":"1"}},{"base_weights":[3.1968445E-2,1.3194377E1,-4.9692593E0,1.1383308E1,1.0191517E2,-1.0195373E1,2.25615E0,7.730452E-1,2.2948256E1,4.3591656E1,1.3400317E2,-1.1332713E1,1.5106645E0,-2.069927E0,3.1469206E1,2.317763E0,-1.1047832E-1,6.547495E-1,1.9547151E0,4.1342035E-1,6.1628222E0,-7.587967E-2,7.1895814E0,-8.283394E-1,-4.299422E-1,1.6496569E0,-8.2382694E-2,6.687914E-1,-2.23033E-1,8.536963E-1,3.0491555E0],"categories":[],"categories_nodes":[],"categories_segments":[],"categories_sizes":[],"default_left":[0,0,0,0,0,0,0,0,0,0,0,0,0,0,0,0,0,0,0,0,0,0,0,0,0,0,0,0,0,0,0],"id":6,"left_children":[1,3,5,7,9,11,13,15,17,19,21,23,25,27,29,-1,-1,-1,-1,-1,-1,-1,-1,-1,-1,-1,-1,-1,-1,-1,-1],"loss_changes":[2.8832725E5,1.9261919E5,1.19875805E5,1.4514478E5,3.9074203E4,2.4541047E4,1.6852694E5,8.412204E4,8.953375E4,2.7121059E4,2.0116312E4,2.3882828E4,1.6361154E4,4.296846E4,7.203486E4,0E0,0E0,0E0,0E0,0E0,0E0,0E0,0E0,0E0,0E0,0E0,0E0,0E0,0E0,0E0,0E0],"parents":[2147483647,0,0,1,1,2,2,3,3,4,4,5,5,6,6,7,7,8,8,9,9,10,10,11,11,12,12,13,13,14,14],"right_children":[2,4,6,8,10,12,14,16,18,20,22,24,26,28,30,-1,-1,-1,-1,-1,-1,-1,-1,-1,-1,-1,-1,-1,-1,-1,-1],"split_conditions":[-5.971586E-1,1.59E0,1.546E3,1.22E3,1.437E3,1.2E1,2.4444445E1,2.2222223E0,2E-2,1.88E0,1.3940242E4,9.17E0,-1.6666666E0,1.834E3,4E-2,2.317763E0,-1.1047832E-1,6.547495E-1,1.9547151E0,4.1342035E-1,6.1628222E0,-7.587967E-2,7.1895814E0,-8.283394E-1,-4.299422E-1,1.6496569E0,-8.2382694E-2,6.687914E-1,-2.23033E-1,8.536963E-1,3.0491555E0],"split_indices":[11,4,3,2,3,0,6,6,4,4,7,5,6,3,4,0,0,0,0,0,0,0,0,0,0,0,0,0,0,0,0],"split_type":[0,0,0,0,0,0,0,0,0,0,0,0,0,0,0,0,0,0,0,0,0,0,0,0,0,0,0,0,0,0,0],"sum_hessian":[4.378E3,1.205E3,3.173E3,1.182E3,2.3E1,1.841E3,1.332E3,6.17E2,5.65E2,9E0,1.4E1,1.678E3,1.63E2,1.161E3,1.71E2,3.7E1,5.8E2,3.52E2,2.13E2,7E0,2E0,1E0,1.3E1,5.74E2,1.104E3,1.4E1,1.49E2,1.55E2,1.006E3,1.16E2,5.5E1],"tree_param":{"num_deleted":"0","num_feature":"12","num_nodes":"31","size_leaf_vector":"1"}},{"base_weights":[3.565984E-2,-4.788239E0,1.2431517E1,-1.1321601E1,-5.8110464E-1,-7.988424E0,1.9224667E1,-1.6038986E1,-9.117174E0,1.4987033E1,-8.9396304E-1,4.5777023E1,-9.395541E0,3.6064003E1,8.69588E0,1.644946E0,-8.3141464E-1,-1.0443467E-1,-5.849816E-1,4.4178185E-1,-2.8695384E-1,6.2714213E-1,6.9604073E0,-8.866068E-1,-2.4078357E-1,1.5175459E0,5.3484726E0,-2.637912E-1,9.887646E-1],"categories":[],"categories_nodes":[],"categories_segments":[],"categories_sizes":[],"default_left":[0,0,0,0,0,0,0,0,0,0,0,0,0,0,0,0,0,0,0,0,0,0,0,0,0,0,0,0,0],"id":7,"left_children":[1,3,5,7,9,11,13,15,17,-1,19,21,23,25,27,-1,-1,-1,-1,-1,-1,-1,-1,-1,-1,-1,-1,-1,-1],"loss_changes":[2.6190778E5,8.6659086E4,1.7035773E5,1.2696703E4,1.8057372E5,2.3655967E4,1.6297769E5,1.1852094E4,1.5294797E4,0E0,9.046719E4,2.3094791E4,1.136876E4,1.4015488E5,8.802975E4,0E0,0E0,0E0,0E0,0E0,0E0,0E0,0E0,0E0,0E0,0E0,0E0,0E0,0E0],"parents":[2147483647,0,0,1,1,2,2,3,3,4,4,5,5,6,6,7,7,8,8,10,10,11,11,12,12,13,13,14,14],"right_children":[2,4,6,8,10,12,14,16,18,-1,20,22,24,26,28,-1,-1,-1,-1,-1,-1,-1,-1,-1,-1,-1,-1,-1,-1],"split_conditions":[3E-2,1.035E3,7.2E2,8.95E0,1.045E3,-2.777778E-1,-5.971586E-1,-3.6111112E0,-4.9845885E-2,1.4987033E1,-3.4202015E-1,3.5E-1,1.2E-1,3.06E1,6E0,1.644946E0,-8.3141464E-1,-1.0443467E-1,-5.849816E-1,4.4178185E-1,-2.8695384E-1,6.2714213E-1,6.9604073E0,-8.866068E-1,-2.4078357E-1,1.5175459E0,5.3484726E0,-2.637912E-1,9.887646E-1],"split_indices":[4,2,2,5,2,6,11,6,10,0,11,4,4,9,0,0,0,0,0,0,0,0,0,0,0,0,0,0,0],"split_type":[0,0,0,0,0,0,0,0,0,0,0,0,0,0,0,0,0,0,0,0,0,0,0,0,0,0,0,0,0],"sum_hessian":[4.378E3,3.152E3,1.226E3,1.234E3,1.918E3,3.06E2,9.2E2,3.91E2,8.43E2,1E0,1.917E3,7E0,2.99E2,3.53E2,5.67E2,4E0,3.87E2,2.27E2,6.16E2,6.37E2,1.28E3,6E0,1E0,1.05E2,1.94E2,3.28E2,2.5E1,2.51E2,3.16E2],"tree_param":{"num_deleted":"0","num_feature":"12","num_nodes":"29","size_leaf_vector":"1"}},{"base_weights":[4.0571876E-2,1.2011963E1,-4.508117E0,1.0296246E1,9.608203E1,-9.348779E0,2.184311E0,6.056777E-1,2.0858923E1,4.1055573E1,1.2636087E2,-1.0397557E1,1.4454207E0,-4.917197E0,1.8353632E1,4.191227E0,-4.5046143E-2,6.000783E-1,1.7685976E0,3.509197E-1,5.90681E0,-1.1192131E-1,6.785321E0,-7.6144797E-1,-3.9370352E-1,1.5457118E0,-7.555484E-2,9.676983E-2,-6.2367123E-1,4.536435E0,6.8911976E-1],"categories":[],"categories_nodes":[],"categories_segments":[],"categories_sizes":[],"default_left":[0,0,0,0,0,0,0,0,0,0,0,0,0,0,0,0,0,0,0,0,0,0,0,0,0,0,0,0,0,0,0],"id":8,"left_children":[1,3,5,7,9,11,13,15,17,19,21,23,25,27,29,-1,-1,-1,-1,-1,-1,-1,-1,-1,-1,-1,-1,-1,-1,-1,-1],"loss_changes":[2.3850881E5,1.7296475E5,1.02844625E5,1.2107727E5,3.479947E4,2.0867812E4,1.5315406E5,7.755887E4,7.233314E4,2.5406943E4,1.8331234E4,2.0350422E4,1.4335225E4,4.8023977E4,1.334029E5,0E0,0E0,0E0,0E0,0E0,0E0,0E0,0E0,0E0,0E0,0E0,0E0,0E0,0E0,0E0,0E0],"parents":[2147483647,0,0,1,1,2,2,3,3,4,4,5,5,6,6,7,7,8,8,9,9,10,10,11,11,12,12,13,13,14,14],"right_children":[2,4,6,8,10,12,14,16,18,20,22,24,26,28,30,-1,-1,-1,-1,-1,-1,-1,-1,-1,-1,-1,-1,-1,-1,-1,-1],"split_conditions":[-5.971586E-1,1.59E0,1.546E3,1.22E3,1.437E3,1.2E1,2E1,-1.6666666E0,2E-2,1.88E0,1.3940242E4,9.17E0,-1.6666666E0,2.44E1,2.0277779E1,4.191227E0,-4.5046143E-2,6.000783E-1,1.7685976E0,3.509197E-1,5.90681E0,-1.1192131E-1,6.785321E0,-7.6144797E-1,-3.9370352E-1,1.5457118E0,-7.555484E-2,9.676983E-2,-6.2367123E-1,4.536435E0,6.8911976E-1],"split_indices":[11,4,3,2,3,0,6,6,4,4,7,5,6,9,6,0,0,0,0,0,0,0,0,0,0,0,0,0,0,0,0],"split_type":[0,0,0,0,0,0,0,0,0,0,0,0,0,0,0,0,0,0,0,0,0,0,0,0,0,0,0,0,0,0,0],"sum_hessian":[4.378E3,1.205E3,3.173E3,1.182E3,2.3E1,1.841E3,1.332E3,6.17E2,5.65E2,9E0,1.4E1,1.678E3,1.63E2,9.26E2,4.06E2,1E1,6.07E2,3.52E2,2.13E2,7E0,2E0,1E0,1.3E1,5.74E2,1.104E3,1.4E1,1.49E2,4.86E2,4.4E2,2.3E1,3.83E2],"tree_param":{"num_deleted":"0","num_feature":"12","num_nodes":"31","size_leaf_vector":"1"}},{"base_weights":[4.4128828E-2,-4.4364834E0,1.1557841E1,-1.0393929E1,-6.001717E-1,-7.6629953E0,1.770435E1,-1.20660715E1,-5.2557025E0,1.46222E1,-9.0543145E-1,4.334886E1,-9.03905E0,1.0605779E1,3.761834E1,2.1832518E-1,-6.482147E-1,3.1598684E-1,-6.0029006E-1,-2.8141388E-1,3.9703274E-1,5.680447E-1,6.6816163E0,-8.7626123E-1,-2.57604E-1,4.389569E-1,6.1031537E0,1.8735942E-1,2.8869717E0],"categories":[],"categories_nodes":[],"categories_segments":[],"categories_sizes":[],"default_left":[0,0,0,0,0,0,0,0,0,0,0,0,0,0,0,0,0,0,0,0,0,0,0,0,0,0,0,0,0],"id":9,"left_children":[1,3,5,7,9,11,13,15,17,-1,19,21,23,25,27,-1,-1,-1,-1,-1,-1,-1,-1,-1,-1,-1,-1,-1,-1],"loss_changes":[2.2595722E5,7.205437E4,1.450947E5,1.0547516E4,1.7192814E5,2.1309975E4,1.3106659E5,1.379825E4,2.3907156E4,0E0,8.0176234E4,2.1585691E4,9.508488E3,1.3879644E5,1.6607566E5,0E0,0E0,0E0,0E0,0E0,0E0,0E0,0E0,0E0,0E0,0E0,0E0,0E0,0E0],"parents":[2147483647,0,0,1,1,2,2,3,3,4,4,5,5,6,6,7,7,8,8,10,10,11,11,12,12,13,13,14,14],"right_children":[2,4,6,8,10,12,14,16,18,-1,20,22,24,26,28,-1,-1,-1,-1,-1,-1,-1,-1,-1,-1,-1,-1,-1,-1],"split_conditions":[3E-2,1.035E3,1.028E3,1.32E1,1.045E3,-2.777778E-1,2.0833334E1,-9.5458764E-1,-3.769172E-1,1.46222E1,2E1,3.5E-1,9.17E0,3.13E0,1.229E3,2.1832518E-1,-6.482147E-1,3.1598684E-1,-6.0029006E-1,-2.8141388E-1,3.9703274E-1,5.680447E-1,6.6816163E0,-8.7626123E-1,-2.57604E-1,4.389569E-1,6.1031537E0,1.8735942E-1,2.8869717E0],"split_indices":[4,2,3,5,2,6,6,11,10,0,6,4,5,4,2,0,0,0,0,0,0,0,0,0,0,0,0,0,0],"split_type":[0,0,0,0,0,0,0,0,0,0,0,0,0,0,0,0,0,0,0,0,0,0,0,0,0,0,0,0,0],"sum_hessian":[4.378E3,3.152E3,1.226E3,1.234E3,1.918E3,2.97E2,9.29E2,9.3E2,3.04E2,1E0,1.917E3,7E0,2.9E2,6.86E2,2.43E2,4.8E1,8.82E2,1.12E2,1.92E2,1.25E3,6.67E2,6E0,1E0,9E1,2E2,6.76E2,1E1,9.1E1,1.52E2],"tree_param":{"num_deleted":"0","num_feature":"12","num_nodes":"29","size_leaf_vector":"1"}},{"base_weights":[4.8717517E-2,1.1258159E1,-4.2104616E0,9.670143E0,8.9065E1,-8.594417E0,1.8506446E0,7.2472525E-1,1.9420317E1,3.8170322E1,1.1705712E2,-9.583342E0,1.5824192E0,-1.9802358E0,2.77206E1,2.112732E0,-9.9638216E-2,5.3692925E-1,1.6614984E0,3.2071608E-1,5.5064774E0,-2.6170206E-1,6.3083034E0,-7.042954E-1,-3.6158526E-1,1.4740112E0,-6.089553E-2,6.2508583E-1,-2.110875E-1,7.571196E-1,2.6752532E0],"categories":[],"categories_nodes":[],"categories_segments":[],"categories_sizes":[],"default_left":[0,0,0,0,0,0,0,0,0,0,0,0,0,0,0,0,0,0,0,0,0,0,0,0,0,0,0,0,0,0,0],"id":10,"left_children":[1,3,5,7,9,11,13,15,17,19,21,23,25,27,29,-1,-1,-1,-1,-1,-1,-1,-1,-1,-1,-1,-1,-1,-1,-1,-1],"loss_changes":[2.0911408E5,1.4815025E5,8.435421E4,1.0316644E5,2.9723484E4,1.8553312E4,1.3216147E5,6.982989E4,6.750186E4,2.2144965E4,1.7369516E4,1.7676047E4,1.2848084E4,3.777304E4,5.4973266E4,0E0,0E0,0E0,0E0,0E0,0E0,0E0,0E0,0E0,0E0,0E0,0E0,0E0,0E0,0E0,0E0],"parents":[2147483647,0,0,1,1,2,2,3,3,4,4,5,5,6,6,7,7,8,8,9,9,10,10,11,11,12,12,13,13,14,14],"right_children":[2,4,6,8,10,12,14,16,18,20,22,24,26,28,30,-1,-1,-1,-1,-1,-1,-1,-1,-1,-1,-1,-1,-1,-1,-1,-1],"split_conditions":[-5.971586E-1,1.59E0,1.546E3,1.22E3,1.437E3,1.2E1,2.4444445E1,2.2222223E0,2.0833334E1,1.88E0,1.3940242E4,9.17E0,-1.6666666E0,1.834E3,4E-2,2.112732E0,-9.9638216E-2,5.3692925E-1,1.6614984E0,3.2071608E-1,5.5064774E0,-2.6170206E-1,6.3083034E0,-7.042954E-1,-3.6158526E-1,1.4740112E0,-6.089553E-2,6.2508583E-1,-2.110875E-1,7.571196E-1,2.6752532E0],"split_indices":[11,4,3,2,3,0,6,6,6,4,7,5,6,3,4,0,0,0,0,0,0,0,0,0,0,0,0,0,0,0,0],"split_type":[0,0,0,0,0,0,0,0,0,0,0,0,0,0,0,0,0,0,0,0,0,0,0,0,0,0,0,0,0,0,0],"sum_hessian":[4.378E3,1.205E3,3.173E3,1.182E3,2.3E1,1.841E3,1.332E3,6.17E2,5.65E2,9E0,1.4E1,1.678E3,1.63E2,1.161E3,1.71E2,3.7E1,5.8E2,3.48E2,2.17E2,7E0,2E0,1E0,1.3E1,5.74E2,1.104E3,1.4E1,1.49E2,1.55E2,1.006E3,1.16E2,5.5E1],"tree_param":{"num_deleted":"0","num_feature":"12","num_nodes":"31","size_leaf_vector":"1"}},{"base_weights":[5.091243E-2,-4.1304083E0,1.0795536E1,-9.548295E0,-6.41497E-1,-7.0017223E0,1.6486706E1,-1.3522658E1,-7.691069E0,1.4265685E1,-9.393431E-1,4.1246696E1,-8.304078E0,3.1068378E1,7.471114E0,1.4842877E0,-7.022308E-1,-7.445458E-2,-4.98521E-1,1.0350002E0,-1.3208714E-1,5.1073766E-1,6.4617577E0,-8.08239E-1,-2.3519698E-1,1.28493E0,4.9014163E0,-2.2434278E-1,8.559515E-1],"categories":[],"categories_nodes":[],"categories_segments":[],"categories_sizes":[],"default_left":[0,0,0,0,0,0,0,0,0,0,0,0,0,0,0,0,0,0,0,0,0,0,0,0,0,0,0,0,0],"id":11,"left_children":[1,3,5,7,9,11,13,15,17,-1,19,21,23,25,27,-1,-1,-1,-1,-1,-1,-1,-1,-1,-1,-1,-1,-1,-1],"loss_changes":[1.9677867E5,5.9593543E4,1.2439486E5,9.011891E3,1.6371047E5,1.9067828E4,1.2202791E5,9.257672E3,1.1916352E4,0E0,7.071153E4,2.0523516E4,8.1591523E3,1.2512466E5,6.652964E4,0E0,0E0,0E0,0E0,0E0,0E0,0E0,0E0,0E0,0E0,0E0,0E0,0E0,0E0],"parents":[2147483647,0,0,1,1,2,2,3,3,4,4,5,5,6,6,7,7,8,8,10,10,11,11,12,12,13,13,14,14],"right_children":[2,4,6,8,10,12,14,16,18,-1,20,22,24,26,28,-1,-1,-1,-1,-1,-1,-1,-1,-1,-1,-1,-1,-1,-1],"split_conditions":[3E-2,1.035E3,1.028E3,8.95E0,1.045E3,-2.777778E-1,-5.971586E-1,-3.6111112E0,-4.9845885E-2,1.4265685E1,-8.9879405E-1,3.5E-1,9.17E0,3.06E1,6E0,1.4842877E0,-7.022308E-1,-7.445458E-2,-4.98521E-1,1.0350002E0,-1.3208714E-1,5.1073766E-1,6.4617577E0,-8.08239E-1,-2.3519698E-1,1.28493E0,4.9014163E0,-2.2434278E-1,8.559515E-1],"split_indices":[4,2,3,5,2,6,11,6,10,0,11,4,5,9,0,0,0,0,0,0,0,0,0,0,0,0,0,0,0],"split_type":[0,0,0,0,0,0,0,0,0,0,0,0,0,0,0,0,0,0,0,0,0,0,0,0,0,0,0,0,0],"sum_hessian":[4.378E3,3.152E3,1.226E3,1.234E3,1.918E3,2.97E2,9.29E2,3.91E2,8.43E2,1E0,1.917E3,7E0,2.9E2,3.54E2,5.75E2,4E0,3.87E2,2.27E2,6.16E2,1.39E2,1.778E3,6E0,1E0,9E1,2E2,3.29E2,2.5E1,2.57E2,3.18E2],"tree_param":{"num_deleted":"0","num_feature":"12","num_nodes":"29","size_leaf_vector":"1"}},{"base_weights":[5.4789495E-2,-3.9190106E0,1.0266148E1,-7.408855E0,1.0937617E0,4.8058216E1,7.7640095E0,-1.093165E1,-5.079904E0,-3.4786227E-1,4.024455E1,1.012735E2,3.546977E1,-2.0367067E0,1.8569975E1,7.5814277E-1,-5.709896E-1,3.7183266E0,-2.7512416E-1,1.0914592E0,-1.4156911E-1,4.7789264E0,6.5245533E-1,6.5015206E0,2.0629601E0,1.7821983E-1,2.1075218E0,-1.4078604E-1,5.785703E0,2.8057206E-1,2.5843596E0],"categories":[],"categories_nodes":[],"categories_segments":[],"categories_sizes":[],"default_left":[0,0,0,0,0,0,0,0,0,0,0,0,0,0,0,0,0,0,0,0,0,0,0,0,0,0,0,0,0,0,0],"id":12,"left_children":[1,3,5,7,9,11,13,15,17,19,21,23,25,27,29,-1,-1,-1,-1,-1,-1,-1,-1,-1,-1,-1,-1,-1,-1,-1,-1],"loss_changes":[1.7773084E5,5.516604E4,1.15653195E5,1.5196484E4,7.310473E4,4.732008E4,1.2204177E5,9.586422E3,3.80439E4,6.890821E4,6.7975055E4,1.879664E4,1.3278164E4,5.5822152E4,2.3488448E5,0E0,0E0,0E0,0E0,0E0,0E0,0E0,0E0,0E0,0E0,0E0,0E0,0E0,0E0,0E0,0E0],"parents":[2147483647,0,0,1,1,2,2,3,3,4,4,5,5,6,6,7,7,8,8,9,9,10,10,11,11,12,12,13,13,14,14],"right_children":[2,4,6,8,10,12,14,16,18,20,22,24,26,28,30,-1,-1,-1,-1,-1,-1,-1,-1,-1,-1,-1,-1,-1,-1,-1,-1],"split_conditions":[3E-2,1.32E3,2.5E0,1.028E3,2.6944445E1,-8.9879405E-1,1.22E3,-3.6111112E0,9E3,1.51E3,9.4E0,1.3E3,7.04E2,3.13E0,2.0833334E1,7.5814277E-1,-5.709896E-1,3.7183266E0,-2.7512416E-1,1.0914592E0,-1.4156911E-1,4.7789264E0,6.5245533E-1,6.5015206E0,2.0629601E0,1.7821983E-1,2.1075218E0,-1.4078604E-1,5.785703E0,2.8057206E-1,2.5843596E0],"split_indices":[4,2,6,3,6,11,2,6,8,2,5,2,2,4,6,0,0,0,0,0,0,0,0,0,0,0,0,0,0,0,0],"split_type":[0,0,0,0,0,0,0,0,0,0,0,0,0,0,0,0,0,0,0,0,0,0,0,0,0,0,0,0,0,0,0],"sum_hessian":[4.378E3,3.152E3,1.226E3,1.858E3,1.294E3,7.5E1,1.151E3,7.38E2,1.12E3,1.249E3,4.5E1,1.3E1,6.2E1,6.04E2,5.47E2,1.3E1,7.25E2,5E0,1.115E3,1.25E2,1.124E3,1.4E1,3.1E1,8E0,5E0,1.1E1,5.1E1,6.01E2,3E0,3.94E2,1.53E2],"tree_param":{"num_deleted":"0","num_feature":"12","num_nodes":"31","size_leaf_vector":"1"}},{"base_weights":[5.8757253E-2,1.0185588E1,-3.789074E0,8.697646E0,8.310432E1,-6.9120793E0,3.4421287E0,7.6523226E-1,1.7343466E1,3.478151E1,1.09779236E2,-1.4131106E0,-1.1412948E1,4.4067177E1,8.231556E-1,3.632076E0,-2.6820982E-2,4.679463E-1,1.5023249E0,2.6612923E-1,5.0872407E0,-2.9429704E-1,5.923073E0,-1.545922E-1,1.0808098E0,-6.0670227E-1,1.7501082E-1,-1.0592035E-1,3.7239113E0,-3.2004046E-1,5.28292E-1],"categories":[],"categories_nodes":[],"categories_segments":[],"categories_sizes":[],"default_left":[0,0,0,0,0,0,0,0,0,0,0,0,0,0,0,0,0,0,0,0,0,0,0,0,0,0,0,0,0,0,0],"id":13,"left_children":[1,3,5,7,9,11,13,15,17,19,21,23,25,27,29,-1,-1,-1,-1,-1,-1,-1,-1,-1,-1,-1,-1,-1,-1,-1,-1],"loss_changes":[1.7067216E5,1.3012677E5,7.1702516E4,8.111951E4,2.7117875E4,5.4854906E4,1.01891E5,5.785775E4,5.712697E4,1.9185125E4,1.5760719E4,3.8688242E4,1.31514375E4,8.1621805E4,6.348074E4,0E0,0E0,0E0,0E0,0E0,0E0,0E0,0E0,0E0,0E0,0E0,0E0,0E0,0E0,0E0,0E0],"parents":[2147483647,0,0,1,1,2,2,3,3,4,4,5,5,6,6,7,7,8,8,9,9,10,10,11,11,12,12,13,13,14,14],"right_children":[2,4,6,8,10,12,14,16,18,20,22,24,26,28,30,-1,-1,-1,-1,-1,-1,-1,-1,-1,-1,-1,-1,-1,-1,-1,-1],"split_conditions":[-5.971586E-1,1.59E0,2E1,1.22E3,1.437E3,8.611111E0,2.0277779E1,-1.6666666E0,2.0833334E1,1.88E0,1.3940242E4,1.946E1,1.2E1,1.41E3,1.546E3,3.632076E0,-2.6820982E-2,4.679463E-1,1.5023249E0,2.6612923E-1,5.0872407E0,-2.9429704E-1,5.923073E0,-1.545922E-1,1.0808098E0,-6.0670227E-1,1.7501082E-1,-1.0592035E-1,3.7239113E0,-3.2004046E-1,5.28292E-1],"split_indices":[11,4,6,2,3,6,6,6,6,4,7,5,0,3,3,0,0,0,0,0,0,0,0,0,0,0,0,0,0,0,0],"split_type":[0,0,0,0,0,0,0,0,0,0,0,0,0,0,0,0,0,0,0,0,0,0,0,0,0,0,0,0,0,0,0],"sum_hessian":[4.378E3,1.205E3,3.173E3,1.182E3,2.3E1,2.216E3,9.57E2,6.17E2,5.65E2,9E0,1.4E1,9.98E2,1.218E3,5.7E1,9E2,1E1,6.07E2,3.48E2,2.17E2,7E0,2E0,1E0,1.3E1,9.31E2,6.7E1,1.162E3,5.6E1,2.3E1,3.4E1,5.17E2,3.83E2],"tree_param":{"num_deleted":"0","num_feature":"12","num_nodes":"31","size_leaf_vector":"1"}},{"base_weights":[6.058741E-2,-3.6706333E0,9.648589E0,-9.561275E0,-8.492477E-1,4.531226E1,7.287402E0,1.9227036E1,-1.0602673E1,-5.2277985E0,5.236565E0,9.503099E1,3.354441E1,-1.7545161E0,1.7256514E1,-8.0227786E-1,1.6705278E0,-5.633968E-1,1.6606636E0,-1.2611768E-1,-4.6027455E-1,-5.6104075E-2,9.1307575E-1,6.0862956E0,1.9575056E0,1.5514682E-1,1.9962142E0,-1.2382757E-1,5.36752E0,2.5570995E-1,2.4144354E0],"categories":[],"categories_nodes":[],"categories_segments":[],"categories_sizes":[],"default_left":[0,0,0,0,0,0,0,0,0,0,0,0,0,0,0,0,0,0,0,0,0,0,0,0,0,0,0,0,0,0,0],"id":14,"left_children":[1,3,5,7,9,11,13,15,17,19,21,23,25,27,29,-1,-1,-1,-1,-1,-1,-1,-1,-1,-1,-1,-1,-1,-1,-1,-1],"loss_changes":[1.5669392E5,5.2394023E4,1.0299376E5,3.0813508E4,5.686551E4,4.1278516E4,1.03871445E5,1.8546512E4,2.9115336E4,1.3331715E4,7.397969E4,1.6118727E4,1.2111508E4,4.7926293E4,2.0624094E5,0E0,0E0,0E0,0E0,0E0,0E0,0E0,0E0,0E0,0E0,0E0,0E0,0E0,0E0,0E0,0E0],"parents":[2147483647,0,0,1,1,2,2,3,3,4,4,5,5,6,6,7,7,8,8,9,9,10,10,11,11,12,12,13,13,14,14],"right_children":[2,4,6,8,10,12,14,16,18,20,22,24,26,28,30,-1,-1,-1,-1,-1,-1,-1,-1,-1,-1,-1,-1,-1,-1,-1,-1],"split_conditions":[3E-2,8.95E0,2.5E0,-9.5458764E-1,1.546E3,-8.9879405E-1,1.22E3,8.28E0,2.6944445E1,8.660254E-1,2E1,1.3E3,7.04E2,3.13E0,2.0833334E1,-8.0227786E-1,1.6705278E0,-5.633968E-1,1.6606636E0,-1.2611768E-1,-4.6027455E-1,-5.6104075E-2,9.1307575E-1,6.0862956E0,1.9575056E0,1.5514682E-1,1.9962142E0,-1.2382757E-1,5.36752E0,2.5570995E-1,2.4144354E0],"split_indices":[4,5,6,11,3,11,2,5,6,10,6,2,2,4,6,0,0,0,0,0,0,0,0,0,0,0,0,0,0,0,0],"split_type":[0,0,0,0,0,0,0,0,0,0,0,0,0,0,0,0,0,0,0,0,0,0,0,0,0,0,0,0,0,0,0],"sum_hessian":[4.378E3,3.152E3,1.226E3,1.02E3,2.132E3,7.5E1,1.151E3,3.5E1,9.85E2,1.24E3,8.92E2,1.3E1,6.2E1,6.04E2,5.47E2,1E1,2.5E1,9.71E2,1.4E1,7.39E2,5.01E2,6E2,2.92E2,8E0,5E0,1.1E1,5.1E1,6.01E2,3E0,3.94E2,1.53E2],"tree_param":{"num_deleted":"0","num_feature":"12","num_nodes":"31","size_leaf_vector":"1"}},{"base_weights":[6.2204078E-2,9.493839E0,-3.5214803E0,8.083153E0,7.863336E1,-5.11277E0,8.892399E0,-1.5746938E0,1.416471E1,3.2590946E1,1.04086075E2,-6.3589916E0,5.12214E0,-2.2599967E0,2.4775404E1,1.8712705E0,-2.2960661E-1,3.5055733E-1,1.3291377E0,2.5990352E-1,4.738748E0,-2.933324E-1,5.6179442E0,-5.577091E-1,-1.846519E-1,1.186535E-1,1.4716251E0,-4.0142176E-1,4.3419027E-1,5.713362E-1,2.768588E0],"categories":[],"categories_nodes":[],"categories_segments":[],"categories_sizes":[],"default_left":[0,0,0,0,0,0,0,0,0,0,0,0,0,0,0,0,0,0,0,0,0,0,0,0,0,0,0,0,0,0,0],"id":15,"left_children":[1,3,5,7,9,11,13,15,17,19,21,23,25,27,29,-1,-1,-1,-1,-1,-1,-1,-1,-1,-1,-1,-1,-1,-1,-1,-1],"loss_changes":[1.4804366E5,1.1699064E5,6.274491E4,6.9505516E4,2.4733453E4,3.592504E4,6.4001207E4,5.4069492E4,6.430658E4,1.6541344E4,1.43034375E4,3.2033234E4,2.0380406E4,1.3516117E4,6.0222016E4,0E0,0E0,0E0,0E0,0E0,0E0,0E0,0E0,0E0,0E0,0E0,0E0,0E0,0E0,0E0,0E0],"parents":[2147483647,0,0,1,1,2,2,3,3,4,4,5,5,6,6,7,7,8,8,9,9,10,10,11,11,12,12,13,13,14,14],"right_children":[2,4,6,8,10,12,14,16,18,20,22,24,26,28,30,-1,-1,-1,-1,-1,-1,-1,-1,-1,-1,-1,-1,-1,-1,-1,-1],"split_conditions":[-5.971586E-1,1.59E0,2.4722221E1,1.312E3,1.437E3,1.2E1,1.546E3,2.2222223E0,2E-2,1.88E0,1.3940242E4,9.4E0,1.812E1,9.826463E-1,4E-2,1.8712705E0,-2.2960661E-1,3.5055733E-1,1.3291377E0,2.5990352E-1,4.738748E0,-2.933324E-1,5.6179442E0,-5.577091E-1,-1.846519E-1,1.186535E-1,1.4716251E0,-4.0142176E-1,4.3419027E-1,5.713362E-1,2.768588E0],"split_indices":[11,4,6,3,3,0,3,6,4,4,7,5,5,10,4,0,0,0,0,0,0,0,0,0,0,0,0,0,0,0,0],"split_type":[0,0,0,0,0,0,0,0,0,0,0,0,0,0,0,0,0,0,0,0,0,0,0,0,0,0,0,0,0,0,0],"sum_hessian":[4.378E3,1.205E3,3.173E3,1.182E3,2.3E1,2.813E3,3.6E2,4.57E2,7.25E2,9E0,1.4E1,2.508E3,3.05E2,2.12E2,1.48E2,3.2E1,4.25E2,4.61E2,2.64E2,7E0,2E0,1E0,1.3E1,8.95E2,1.613E3,2.75E2,3E1,1.39E2,7.3E1,1.04E2,4.4E1],"tree_param":{"num_deleted":"0","num_feature":"12","num_nodes":"31","size_leaf_vector":"1"}},{"base_weights":[6.317367E-2,9.030461E0,-3.3440766E0,7.6818027E0,7.513183E1,-6.127E0,3.099645E0,-1.3525998E1,1.0200234E1,3.1461266E1,9.923675E1,-1.033128E0,-1.0296525E1,4.2143673E1,5.8282673E-1,-9.29842E-1,3.346251E-1,5.235902E0,4.5992127E-1,2.4853277E-1,4.58079E0,-2.8599912E-1,5.3571115E0,-1.2873094E-1,1.0054777E0,-5.4695886E-1,1.4982468E-1,-6.975079E-2,3.5397332E0,1.437734E0,-7.666377E-2],"categories":[],"categories_nodes":[],"categories_segments":[],"categories_sizes":[],"default_left":[0,0,0,0,0,0,0,0,0,0,0,0,0,0,0,0,0,0,0,0,0,0,0,0,0,0,0,0,0,0,0],"id":16,"left_children":[1,3,5,7,9,11,13,15,17,19,21,23,25,27,29,-1,-1,-1,-1,-1,-1,-1,-1,-1,-1,-1,-1,-1,-1,-1,-1],"loss_changes":[1.3382527E5,1.0693556E5,5.6936375E4,6.3322484E4,2.2142094E4,4.707629E4,9.4114945E4,1.3042584E4,9.92175E4,1.5479914E4,1.3058844E4,3.2610422E4,1.0446445E4,7.244951E4,5.375677E4,0E0,0E0,0E0,0E0,0E0,0E0,0E0,0E0,0E0,0E0,0E0,0E0,0E0,0E0,0E0,0E0],"parents":[2147483647,0,0,1,1,2,2,3,3,4,4,5,5,6,6,7,7,8,8,9,9,10,10,11,11,12,12,13,13,14,14],"right_children":[2,4,6,8,10,12,14,16,18,20,22,24,26,28,30,-1,-1,-1,-1,-1,-1,-1,-1,-1,-1,-1,-1,-1,-1,-1,-1],"split_conditions":[-5.971586E-1,1.59E0,2E1,2.28E1,1.437E3,8.611111E0,2.0277779E1,7E0,-2.5E0,1.88E0,1.3940242E4,1.946E1,1.2E1,1.41E3,1.0519193E4,-9.29842E-1,3.346251E-1,5.235902E0,4.5992127E-1,2.4853277E-1,4.58079E0,-2.8599912E-1,5.3571115E0,-1.2873094E-1,1.0054777E0,-5.4695886E-1,1.4982468E-1,-6.975079E-2,3.5397332E0,1.437734E0,-7.666377E-2],"split_indices":[11,4,6,9,3,6,6,1,6,4,7,5,0,3,7,0,0,0,0,0,0,0,0,0,0,0,0,0,0,0,0],"split_type":[0,0,0,0,0,0,0,0,0,0,0,0,0,0,0,0,0,0,0,0,0,0,0,0,0,0,0,0,0,0,0],"sum_hessian":[4.378E3,1.205E3,3.173E3,1.182E3,2.3E1,2.216E3,9.57E2,1.25E2,1.057E3,9E0,1.4E1,9.98E2,1.218E3,5.7E1,9E2,1E2,2.5E1,1E1,1.047E3,7E0,2E0,1E0,1.3E1,9.31E2,6.7E1,1.162E3,5.6E1,2.3E1,3.4E1,6.2E1,8.38E2],"tree_param":{"num_deleted":"0","num_feature":"12","num_nodes":"31","size_leaf_vector":"1"}},{"base_weights":[6.4653404E-2,-3.2902963E0,8.685755E0,-8.665061E0,-7.160232E-1,4.148365E1,6.5144653E0,1.7695227E1,-9.618717E0,-4.7896056E0,4.945827E0,8.5885506E1,3.0958103E1,1.1978687E1,-7.367209E0,-7.9210216E-1,1.5601743E0,-5.1124793E-1,1.5153495E0,-4.3653542E-1,-1.063711E-1,7.4913E-1,-9.783425E-2,5.543209E0,1.705162E0,1.20978236E-1,1.8474286E0,2.0220725E-1,1.4633268E0,-4.579502E-1,1.5196638E0],"categories":[],"categories_nodes":[],"categories_segments":[],"categories_sizes":[],"default_left":[0,0,0,0,0,0,0,0,0,0,0,0,0,0,0,0,0,0,0,0,0,0,0,0,0,0,0,0,0,0,0],"id":17,"left_children":[1,3,5,7,9,11,13,15,17,19,21,23,25,27,29,-1,-1,-1,-1,-1,-1,-1,-1,-1,-1,-1,-1,-1,-1,-1,-1],"loss_changes":[1.2668398E5,4.361906E4,8.710903E4,2.5836773E4,4.921923E4,3.286004E4,8.7470375E4,1.680341E4,2.4175648E4,1.3001922E4,6.1895414E4,1.43275E4,1.0681031E4,1.1332221E5,2.233522E4,0E0,0E0,0E0,0E0,0E0,0E0,0E0,0E0,0E0,0E0,0E0,0E0,0E0,0E0,0E0,0E0],"parents":[2147483647,0,0,1,1,2,2,3,3,4,4,5,5,6,6,7,7,8,8,9,9,10,10,11,11,12,12,13,13,14,14],"right_children":[2,4,6,8,10,12,14,16,18,20,22,24,26,28,30,-1,-1,-1,-1,-1,-1,-1,-1,-1,-1,-1,-1,-1,-1,-1,-1],"split_conditions":[3E-2,8.95E0,2.5E0,-9.5458764E-1,1.546E3,-8.9879405E-1,5.814483E-2,8.28E0,2.6944445E1,1.028E3,-1.7364818E-1,1.3E3,7.04E2,2.0833334E1,1.969E1,-7.9210216E-1,1.5601743E0,-5.1124793E-1,1.5153495E0,-4.3653542E-1,-1.063711E-1,7.4913E-1,-9.783425E-2,5.543209E0,1.705162E0,1.20978236E-1,1.8474286E0,2.0220725E-1,1.4633268E0,-4.579502E-1,1.5196638E0],"split_indices":[4,5,6,11,3,11,11,5,6,3,11,2,2,6,5,0,0,0,0,0,0,0,0,0,0,0,0,0,0,0,0],"split_type":[0,0,0,0,0,0,0,0,0,0,0,0,0,0,0,0,0,0,0,0,0,0,0,0,0,0,0,0,0,0,0],"sum_hessian":[4.378E3,3.152E3,1.226E3,1.02E3,2.132E3,7.5E1,1.151E3,3.5E1,9.85E2,1.24E3,8.92E2,1.3E1,6.2E1,8.26E2,3.25E2,1E1,2.5E1,9.71E2,1.4E1,4.99E2,7.41E2,3.63E2,5.29E2,8E0,5E0,1.1E1,5.1E1,5.67E2,2.59E2,3.11E2,1.4E1],"tree_param":{"num_deleted":"0","num_feature":"12","num_nodes":"31","size_leaf_vector":"1"}},{"base_weights":[6.457778E-2,-1.4730806E0,1.7080305E1,3.5477438E0,-5.4859324E0,1.2503568E1,1.04106476E2,-3.7719903E0,1.1549812E1,-6.673003E0,5.573089E0,4.249232E1,2.4207792E0,6.498922E1,1.9227495E1,-4.1803095E-1,1.7014794E-2,4.6996304E-1,2.4977643E0,7.8663126E-2,-4.414836E-1,-8.495166E-1,5.462938E-1,4.79828E0,1.7150717E0,1.6541132E0,-1.01384245E-1,1.568961E0,6.968869E0],"categories":[],"categories_nodes":[],"categories_segments":[],"categories_sizes":[],"default_left":[0,0,0,0,0,0,0,0,0,0,0,0,0,0,0,0,0,0,0,0,0,0,0,0,0,0,0,0,0],"id":18,"left_children":[1,3,5,7,9,11,13,15,17,19,21,23,25,27,-1,-1,-1,-1,-1,-1,-1,-1,-1,-1,-1,-1,-1,-1,-1],"loss_changes":[1.1459898E5,8.095327E4,1.4327972E5,1.0459639E5,2.9351656E4,1.04517234E5,1.7247161E5,1.7608324E4,6.998225E4,3.588514E4,2.6394283E4,3.4813688E4,3.5530176E4,3.81296E4,0E0,0E0,0E0,0E0,0E0,0E0,0E0,0E0,0E0,0E0,0E0,0E0,0E0,0E0,0E0],"parents":[2147483647,0,0,1,1,2,2,3,3,4,4,5,5,6,6,7,7,8,8,9,9,10,10,11,11,12,12,13,13],"right_children":[2,4,6,8,10,12,14,16,18,20,22,24,26,28,-1,-1,-1,-1,-1,-1,-1,-1,-1,-1,-1,-1,-1,-1,-1],"split_conditions":[3.6E-1,-2.2252093E-1,2.318E3,1.22E3,2.4444445E1,7.2222223E0,3.11E1,1.007E1,2.638889E1,3.6111112E0,7E0,3.8E-1,9.879714E3,9.6484196E-1,1.9227495E1,-4.1803095E-1,1.7014794E-2,4.6996304E-1,2.4977643E0,7.8663126E-2,-4.414836E-1,-8.495166E-1,5.462938E-1,4.79828E0,1.7150717E0,1.6541132E0,-1.01384245E-1,1.568961E0,6.968869E0],"split_indices":[4,11,3,2,6,6,9,5,6,6,0,4,7,10,0,0,0,0,0,0,0,0,0,0,0,0,0,0,0],"split_type":[0,0,0,0,0,0,0,0,0,0,0,0,0,0,0,0,0,0,0,0,0,0,0,0,0,0,0,0,0],"sum_hessian":[4.378E3,4.016E3,3.62E2,1.784E3,2.232E3,3.45E2,1.7E1,9.32E2,8.52E2,2.016E3,2.16E2,8.6E1,2.59E2,1.6E1,1E0,4.4E2,4.92E2,8.08E2,4.4E1,4.18E2,1.598E3,4.1E1,1.75E2,1E1,7.6E1,3.2E1,2.27E2,1.2E1,4E0],"tree_param":{"num_deleted":"0","num_feature":"12","num_nodes":"29","size_leaf_vector":"1"}},{"base_weights":[6.996545E-2,-3.0392802E0,8.059682E0,-8.127882E0,-6.0210156E-1,-6.5727253E0,1.2739679E1,1.6794222E1,-9.029574E0,-4.3595796E0,4.620331E0,3.2967533E1,-7.637156E0,7.3375764E0,2.7897486E1,-7.572778E-1,1.4830636E0,-4.796763E-1,1.4058254E0,1.2802277E0,-2.3364921E-1,-5.0376195E-2,8.074194E-1,3.242875E-1,5.4585004E0,-7.2652906E-1,-2.2391284E-1,2.1268728E0,1.950662E-1,1.985841E0,-5.7875055E-1],"categories":[],"categories_nodes":[],"categories_segments":[],"categories_sizes":[],"default_left":[0,0,0,0,0,0,0,0,0,0,0,0,0,0,0,0,0,0,0,0,0,0,0,0,0,0,0,0,0,0,0],"id":19,"left_children":[1,3,5,7,9,11,13,15,17,19,21,23,25,27,29,-1,-1,-1,-1,-1,-1,-1,-1,-1,-1,-1,-1,-1,-1,-1,-1],"loss_changes":[1.0880757E5,3.9098086E4,8.410823E4,2.3095602E4,4.1876375E4,1.2793962E4,7.594744E4,1.5244181E4,2.0925078E4,1.177375E4,5.795253E4,1.543577E4,6.2716387E3,8.293059E4,1.1429514E5,0E0,0E0,0E0,0E0,0E0,0E0,0E0,0E0,0E0,0E0,0E0,0E0,0E0,0E0,0E0,0E0],"parents":[2147483647,0,0,1,1,2,2,3,3,4,4,5,5,6,6,7,7,8,8,9,9,10,10,11,11,12,12,13,13,14,14],"right_children":[2,4,6,8,10,12,14,16,18,20,22,24,26,28,30,-1,-1,-1,-1,-1,-1,-1,-1,-1,-1,-1,-1,-1,-1,-1,-1],"split_conditions":[3E-2,8.95E0,1.028E3,-9.5458764E-1,1.546E3,-2.777778E-1,2.0833334E1,8.28E0,2.6944445E1,9E3,2E1,3.5E-1,9.17E0,2.5E0,5.814483E-2,-7.572778E-1,1.4830636E0,-4.796763E-1,1.4058254E0,1.2802277E0,-2.3364921E-1,-5.0376195E-2,8.074194E-1,3.242875E-1,5.4585004E0,-7.2652906E-1,-2.2391284E-1,2.1268728E0,1.950662E-1,1.985841E0,-5.7875055E-1],"split_indices":[4,5,3,11,3,6,6,5,6,8,6,4,5,6,11,0,0,0,0,0,0,0,0,0,0,0,0,0,0,0,0],"split_type":[0,0,0,0,0,0,0,0,0,0,0,0,0,0,0,0,0,0,0,0,0,0,0,0,0,0,0,0,0,0,0],"sum_hessian":[4.378E3,3.152E3,1.226E3,1.02E3,2.132E3,2.97E2,9.29E2,3.5E1,9.85E2,1.24E3,8.92E2,7E0,2.9E2,6.86E2,2.43E2,1E1,2.5E1,9.71E2,1.4E1,1.2E1,1.228E3,6E2,2.92E2,6E0,1E0,9E1,2E2,6E1,6.26E2,1.87E2,5.6E1],"tree_param":{"num_deleted":"0","num_feature":"12","num_nodes":"31","size_leaf_vector":"1"}},{"base_weights":[6.921147E-2,7.8017006E0,-2.8688638E0,6.5375853E0,6.9786964E1,-5.30861E0,2.7801821E0,-2.4455836E0,1.2016368E1,-2.734972E-1,8.079842E1,-7.4371815E-1,-9.045294E0,4.0248123E1,3.6517572E-1,6.8817794E-1,-6.424185E-1,3.2773304E-1,1.4860568E0,-3.316577E-1,4.275083E0,-1.0780387E-1,9.312424E-1,-5.265811E-1,-2.0115872E-1,-2.5770828E-2,3.352516E0,1.3348907E0,-8.0628075E-2],"categories":[],"categories_nodes":[],"categories_segments":[],"categories_sizes":[],"default_left":[0,0,0,0,0,0,0,0,0,0,0,0,0,0,0,0,0,0,0,0,0,0,0,0,0,0,0,0,0],"id":20,"left_children":[1,3,5,7,9,11,13,15,17,-1,19,21,23,25,27,-1,-1,-1,-1,-1,-1,-1,-1,-1,-1,-1,-1,-1,-1],"loss_changes":[9.950728E4,9.404172E4,4.3759586E4,5.825289E4,2.0330492E4,3.7809883E4,8.6670234E4,7.588732E4,7.087842E4,0E0,9.202578E3,2.7368172E4,9.056875E3,6.3402594E4,4.696627E4,0E0,0E0,0E0,0E0,0E0,0E0,0E0,0E0,0E0,0E0,0E0,0E0,0E0,0E0],"parents":[2147483647,0,0,1,1,2,2,3,3,4,4,5,5,6,6,7,7,8,8,10,10,11,11,12,12,13,13,14,14],"right_children":[2,4,6,8,10,12,14,16,18,-1,20,22,24,26,28,-1,-1,-1,-1,-1,-1,-1,-1,-1,-1,-1,-1,-1,-1],"split_conditions":[-5.971586E-1,1.59E0,2E1,9.84E0,7.37E2,8.611111E0,2.0277779E1,3.884348E-1,1.921E3,-2.734972E-1,1.3940242E4,1.946E1,1.275E1,1.41E3,1.0519193E4,6.8817794E-1,-6.424185E-1,3.2773304E-1,1.4860568E0,-3.316577E-1,4.275083E0,-1.0780387E-1,9.312424E-1,-5.265811E-1,-2.0115872E-1,-2.5770828E-2,3.352516E0,1.3348907E0,-8.0628075E-2],"split_indices":[11,4,6,5,2,6,6,10,3,0,7,5,5,3,7,0,0,0,0,0,0,0,0,0,0,0,0,0,0],"split_type":[0,0,0,0,0,0,0,0,0,0,0,0,0,0,0,0,0,0,0,0,0,0,0,0,0,0,0,0,0],"sum_hessian":[4.378E3,1.205E3,3.173E3,1.182E3,2.3E1,2.216E3,9.57E2,4.48E2,7.34E2,3E0,2E1,9.98E2,1.218E3,5.7E1,9E2,1.75E2,2.73E2,5.62E2,1.72E2,1E0,1.9E1,9.31E2,6.7E1,9.39E2,2.79E2,2.3E1,3.4E1,6.2E1,8.38E2],"tree_param":{"num_deleted":"0","num_feature":"12","num_nodes":"29","size_leaf_vector":"1"}},{"base_weights":[6.808153E-2,-2.8284795E0,7.511267E0,-4.683323E-1,-7.326467E0,-6.2400527E0,1.1909528E1,-4.1560793E0,5.1538043E0,1.9115491E0,-9.93852E0,3.1843124E1,-7.2655697E0,6.729611E0,2.6445156E1,-3.5178384E-1,6.276014E-2,1.255878E0,9.801097E-2,-3.86116E-1,6.9792646E-1,1.3956379E0,-5.2123374E-1,3.0136594E-1,5.313844E0,-4.1139537E-1,6.9732803E-1,2.6971206E-1,4.4151893E0,1.8851618E0,-5.5753523E-1],"categories":[],"categories_nodes":[],"categories_segments":[],"categories_sizes":[],"default_left":[0,0,0,0,0,0,0,0,0,0,0,0,0,0,0,0,0,0,0,0,0,0,0,0,0,0,0,0,0,0,0],"id":21,"left_children":[1,3,5,7,9,11,13,15,17,19,21,23,25,27,29,-1,-1,-1,-1,-1,-1,-1,-1,-1,-1,-1,-1,-1,-1,-1,-1],"loss_changes":[9.443092E4,3.346854E4,7.428559E4,4.291803E4,2.620025E4,1.1869729E4,6.984483E4,1.948672E4,5.223064E4,2.796196E4,1.5858719E4,1.4731977E4,6.055E3,7.435976E4,1.0369517E5,0E0,0E0,0E0,0E0,0E0,0E0,0E0,0E0,0E0,0E0,0E0,0E0,0E0,0E0,0E0,0E0],"parents":[2147483647,0,0,1,1,2,2,3,3,4,4,5,5,6,6,7,7,8,8,9,9,10,10,11,11,12,12,13,13,14,14],"right_children":[2,4,6,8,10,12,14,16,18,20,22,24,26,28,30,-1,-1,-1,-1,-1,-1,-1,-1,-1,-1,-1,-1,-1,-1,-1,-1],"split_conditions":[3E-2,9E0,1.028E3,1.35E3,3.2143947E-1,-2.777778E-1,2.0833334E1,6E0,1.51E3,1.259E3,-3.6111112E0,3.5E-1,2.611111E1,3.13E0,5.814483E-2,-3.5178384E-1,6.276014E-2,1.255878E0,9.801097E-2,-3.86116E-1,6.9792646E-1,1.3956379E0,-5.2123374E-1,3.0136594E-1,5.313844E0,-4.1139537E-1,6.9732803E-1,2.6971206E-1,4.4151893E0,1.8851618E0,-5.5753523E-1],"split_indices":[4,0,3,2,10,6,6,0,2,2,6,4,6,4,11,0,0,0,0,0,0,0,0,0,0,0,0,0,0,0,0],"split_type":[0,0,0,0,0,0,0,0,0,0,0,0,0,0,0,0,0,0,0,0,0,0,0,0,0,0,0,0,0,0,0],"sum_hessian":[4.378E3,3.152E3,1.226E3,2.068E3,1.084E3,2.97E2,9.29E2,1.249E3,8.19E2,2.39E2,8.45E2,7E0,2.9E2,6.86E2,2.43E2,8.15E2,4.34E2,1.12E2,7.07E2,1.33E2,1.06E2,1E1,8.35E2,6E0,1E0,2.78E2,1.2E1,6.76E2,1E1,1.87E2,5.6E1],"tree_param":{"num_deleted":"0","num_feature":"12","num_nodes":"31","size_leaf_vector":"1"}},{"base_weights":[6.7912094E-2,-1.1689891E0,1.5975185E1,3.3143969E0,-4.7958813E0,1.0881794E1,1.10796165E2,-2.8995974E0,1.00888405E1,-5.9942303E0,4.6725063E0,-1.0821979E0,2.970621E1,6.8548225E1,1.8612883E1,1.3915308E0,-2.0185363E-1,4.053863E-1,2.311455E0,-3.6723855E-1,2.552669E-1,9.31693E-2,1.9585484E0,9.3298465E-1,-2.988642E-1,6.3183665E0,1.2131351E0,-1.6969823E0,4.346317E0],"categories":[],"categories_nodes":[],"categories_segments":[],"categories_sizes":[],"default_left":[0,0,0,0,0,0,0,0,0,0,0,0,0,0,0,0,0,0,0,0,0,0,0,0,0,0,0,0,0],"id":22,"left_children":[1,3,5,7,9,11,13,15,17,19,21,23,25,27,-1,-1,-1,-1,-1,-1,-1,-1,-1,-1,-1,-1,-1,-1,-1],"loss_changes":[8.617867E4,6.609961E4,1.5140983E5,7.656043E4,2.5523438E4,6.7821914E4,1.5122173E5,3.328452E4,6.191543E4,2.994339E4,2.4445316E4,1.798961E4,5.8496523E4,3.1203234E4,0E0,0E0,0E0,0E0,0E0,0E0,0E0,0E0,0E0,0E0,0E0,0E0,0E0,0E0,0E0],"parents":[2147483647,0,0,1,1,2,2,3,3,4,4,5,5,6,6,7,7,8,8,9,9,10,10,11,11,12,12,13,13],"right_children":[2,4,6,8,10,12,14,16,18,20,22,24,26,28,-1,-1,-1,-1,-1,-1,-1,-1,-1,-1,-1,-1,-1,-1,-1],"split_conditions":[5.4E-1,-2.2252093E-1,2.318E3,1.22E3,1.2E1,6E0,3.11E1,-2.777778E-1,2.638889E1,2.4444445E1,1.812E1,6.388889E0,9.674286E3,-5.591929E-1,1.8612883E1,1.3915308E0,-2.0185363E-1,4.053863E-1,2.311455E0,-3.6723855E-1,2.552669E-1,9.31693E-2,1.9585484E0,9.3298465E-1,-2.988642E-1,6.3183665E0,1.2131351E0,-1.6969823E0,4.346317E0],"split_indices":[4,11,3,2,0,1,9,6,6,6,5,6,7,10,0,0,0,0,0,0,0,0,0,0,0,0,0,0,0],"split_type":[0,0,0,0,0,0,0,0,0,0,0,0,0,0,0,0,0,0,0,0,0,0,0,0,0,0,0,0,0],"sum_hessian":[4.378E3,4.063E3,3.15E2,1.817E3,2.246E3,3E2,1.5E1,9.48E2,8.69E2,1.994E3,2.52E2,1.84E2,1.16E2,1.4E1,1E0,3.3E1,9.15E2,8.25E2,4.4E1,1.778E3,2.16E2,2.34E2,1.8E1,3.6E1,1.48E2,5E0,1.11E2,2E0,1.2E1],"tree_param":{"num_deleted":"0","num_feature":"12","num_nodes":"29","size_leaf_vector":"1"}},{"base_weights":[7.2571814E-2,-2.6004539E0,6.941339E0,-7.2451496E0,-3.7596515E-1,3.5251457E1,5.067632E0,1.5087871E1,-8.0532055E0,-7.339835E0,1.755192E0,7.443801E1,2.5983788E1,-2.273198E0,1.3162768E1,-7.658492E-1,1.368558E0,-4.27435E-1,1.2295855E0,1.3363124E0,-3.9388716E-1,2.2168093E0,5.330152E-2,7.0425644E0,2.581576E0,4.926839E-2,1.5626482E0,-1.4309987E-1,4.34547E0,1.3951795E-1,1.9840927E0],"categories":[],"categories_nodes":[],"categories_segments":[],"categories_sizes":[],"default_left":[0,0,0,0,0,0,0,0,0,0,0,0,0,0,0,0,0,0,0,0,0,0,0,0,0,0,0,0,0,0,0],"id":23,"left_children":[1,3,5,7,9,11,13,15,17,19,21,23,25,27,29,-1,-1,-1,-1,-1,-1,-1,-1,-1,-1,-1,-1,-1,-1,-1,-1],"loss_changes":[8.041821E4,3.2574305E4,6.4907402E4,1.8546816E4,3.166895E4,2.5666586E4,6.848755E4,1.3864222E4,1.6159137E4,9.37276E3,4.790277E4,1.3932781E4,8.267633E3,3.2017678E4,1.506259E5,0E0,0E0,0E0,0E0,0E0,0E0,0E0,0E0,0E0,0E0,0E0,0E0,0E0,0E0,0E0,0E0],"parents":[2147483647,0,0,1,1,2,2,3,3,4,4,5,5,6,6,7,7,8,8,9,9,10,10,11,11,12,12,13,13,14,14],"right_children":[2,4,6,8,10,12,14,16,18,20,22,24,26,28,30,-1,-1,-1,-1,-1,-1,-1,-1,-1,-1,-1,-1,-1,-1,-1,-1],"split_conditions":[3E-2,8.95E0,2.5E0,-9.5458764E-1,1.028E3,-8.9879405E-1,1.22E3,8.28E0,2.6944445E1,9.17E0,1.1E4,7.42E2,7.04E2,3.13E0,2.0833334E1,-7.658492E-1,1.368558E0,-4.27435E-1,1.2295855E0,1.3363124E0,-3.9388716E-1,2.2168093E0,5.330152E-2,7.0425644E0,2.581576E0,4.926839E-2,1.5626482E0,-1.4309987E-1,4.34547E0,1.3951795E-1,1.9840927E0],"split_indices":[4,5,6,11,3,11,2,5,6,5,8,2,2,4,6,0,0,0,0,0,0,0,0,0,0,0,0,0,0,0,0],"split_type":[0,0,0,0,0,0,0,0,0,0,0,0,0,0,0,0,0,0,0,0,0,0,0,0,0,0,0,0,0,0,0],"sum_hessian":[4.378E3,3.152E3,1.226E3,1.02E3,2.132E3,7.5E1,1.151E3,3.5E1,9.85E2,4.99E2,1.633E3,1.3E1,6.2E1,6.04E2,5.47E2,1E1,2.5E1,9.71E2,1.4E1,7E0,4.92E2,2.5E1,1.608E3,2E0,1.1E1,1.1E1,5.1E1,6.01E2,3E0,3.94E2,1.53E2],"tree_param":{"num_deleted":"0","num_feature":"12","num_nodes":"31","size_leaf_vector":"1"}},{"base_weights":[7.40082E-2,6.8595433E0,-2.504262E0,5.7224493E0,6.2622997E1,-4.623807E0,2.403395E0,-2.7911642E0,1.0915497E1,2.3164448E1,8.475383E1,-6.1400485E0,4.865336E0,3.8862633E1,5.373975E-2,6.022096E-1,-6.1551285E-1,3.9966315E-1,2.07142E0,-8.242989E-3,3.8827229E0,5.2877197E0,1.7813625E0,-1.0375141E-1,-4.6415234E-1,1.378606E-1,1.1738746E0,3.084689E0,-3.8006172E-1,1.2407172E0,-9.027915E-2],"categories":[],"categories_nodes":[],"categories_segments":[],"categories_sizes":[],"default_left":[0,0,0,0,0,0,0,0,0,0,0,0,0,0,0,0,0,0,0,0,0,0,0,0,0,0,0,0,0,0,0],"id":24,"left_children":[1,3,5,7,9,11,13,15,17,19,21,23,25,27,29,-1,-1,-1,-1,-1,-1,-1,-1,-1,-1,-1,-1,-1,-1,-1,-1],"loss_changes":[7.662753E4,7.6112055E4,3.302706E4,5.2332785E4,1.8994734E4,3.19277E4,8.206655E4,6.3555664E4,6.5205734E4,1.2724942E4,1.1707555E4,2.4409117E4,1.1941709E4,6.199671E4,4.1524996E4,0E0,0E0,0E0,0E0,0E0,0E0,0E0,0E0,0E0,0E0,0E0,0E0,0E0,0E0,0E0,0E0],"parents":[2147483647,0,0,1,1,2,2,3,3,4,4,5,5,6,6,7,7,8,8,9,9,10,10,11,11,12,12,13,13,14,14],"right_children":[2,4,6,8,10,12,14,16,18,20,22,24,26,28,30,-1,-1,-1,-1,-1,-1,-1,-1,-1,-1,-1,-1,-1,-1,-1,-1],"split_conditions":[-5.971586E-1,1.59E0,2E1,9.84E0,1.437E3,1.2E1,2.0277779E1,3.884348E-1,3.06E1,1.88E0,1.536E3,4E0,1.812E1,1.845E3,1.0519193E4,6.022096E-1,-6.1551285E-1,3.9966315E-1,2.07142E0,-8.242989E-3,3.8827229E0,5.2877197E0,1.7813625E0,-1.0375141E-1,-4.6415234E-1,1.378606E-1,1.1738746E0,3.084689E0,-3.8006172E-1,1.2407172E0,-9.027915E-2],"split_indices":[11,4,6,5,3,0,6,10,9,4,2,0,5,3,7,0,0,0,0,0,0,0,0,0,0,0,0,0,0,0,0],"split_type":[0,0,0,0,0,0,0,0,0,0,0,0,0,0,0,0,0,0,0,0,0,0,0,0,0,0,0,0,0,0,0],"sum_hessian":[4.378E3,1.205E3,3.173E3,1.182E3,2.3E1,2.216E3,9.57E2,4.48E2,7.34E2,9E0,1.4E1,1.911E3,3.05E2,5.7E1,9E2,1.75E2,2.73E2,6.71E2,6.3E1,7E0,2E0,9E0,5E0,8.34E2,1.077E3,2.75E2,3E1,3.8E1,1.9E1,6.2E1,8.38E2],"tree_param":{"num_deleted":"0","num_feature":"12","num_nodes":"31","size_leaf_vector":"1"}},{"base_weights":[7.4418314E-2,-1.0421666E0,1.4434314E1,2.9892662E0,-4.3034496E0,9.568305E0,1.05073944E2,-2.7668505E0,9.264629E0,-5.390928E0,4.2887354E0,-1.6121022E0,2.7164948E1,6.395575E1,1.8046171E1,1.2661246E0,-1.9032238E-1,7.8700095E-1,-7.681083E-2,-3.3171874E-1,2.4139427E-1,8.589222E-2,1.7930437E0,8.578116E-1,-3.130938E-1,6.000519E0,1.097427E0,-1.7150849E0,4.085544E0],"categories":[],"categories_nodes":[],"categories_segments":[],"categories_sizes":[],"default_left":[0,0,0,0,0,0,0,0,0,0,0,0,0,0,0,0,0,0,0,0,0,0,0,0,0,0,0,0,0],"id":25,"left_children":[1,3,5,7,9,11,13,15,17,19,21,23,25,27,-1,-1,-1,-1,-1,-1,-1,-1,-1,-1,-1,-1,-1,-1,-1],"loss_changes":[7.022812E4,5.3444887E4,1.3836744E5,6.569492E4,2.1018672E4,5.926181E4,1.4523798E5,2.7808701E4,6.0871703E4,2.5381594E4,2.0474033E4,1.62521045E4,5.403133E4,2.8971422E4,0E0,0E0,0E0,0E0,0E0,0E0,0E0,0E0,0E0,0E0,0E0,0E0,0E0,0E0,0E0],"parents":[2147483647,0,0,1,1,2,2,3,3,4,4,5,5,6,6,7,7,8,8,9,9,10,10,11,11,12,12,13,13],"right_children":[2,4,6,8,10,12,14,16,18,20,22,24,26,28,-1,-1,-1,-1,-1,-1,-1,-1,-1,-1,-1,-1,-1,-1,-1],"split_conditions":[5.4E-1,-2.2252093E-1,2.318E3,1.22E3,1.2E1,6E0,3.11E1,-2.777778E-1,1.729E3,2.4444445E1,1.812E1,6.388889E0,9.674286E3,-5.591929E-1,1.8046171E1,1.2661246E0,-1.9032238E-1,7.8700095E-1,-7.681083E-2,-3.3171874E-1,2.4139427E-1,8.589222E-2,1.7930437E0,8.578116E-1,-3.130938E-1,6.000519E0,1.097427E0,-1.7150849E0,4.085544E0],"split_indices":[4,11,3,2,0,1,9,6,2,6,5,6,7,10,0,0,0,0,0,0,0,0,0,0,0,0,0,0,0],"split_type":[0,0,0,0,0,0,0,0,0,0,0,0,0,0,0,0,0,0,0,0,0,0,0,0,0,0,0,0,0],"sum_hessian":[4.378E3,4.063E3,3.15E2,1.817E3,2.246E3,3E2,1.5E1,9.48E2,8.69E2,1.994E3,2.52E2,1.84E2,1.16E2,1.4E1,1E0,3.3E1,9.15E2,5.43E2,3.26E2,1.778E3,2.16E2,2.34E2,1.8E1,3.6E1,1.48E2,5E0,1.11E2,2E0,1.2E1],"tree_param":{"num_deleted":"0","num_feature":"12","num_nodes":"29","size_leaf_vector":"1"}},{"base_weights":[7.7921376E-2,-7.0499945E0,2.2196593E0,1.6304337E1,-7.537284E0,8.586068E-1,1.979731E1,4.38508E1,-1.272434E1,-8.183419E0,3.0088108E0,5.3146906E0,-2.7428172E0,1.3979773E1,1.0109628E2,5.2017536E0,4.1386577E-1,-1.1810153E0,-2.8429085E-1,-4.5389792E-1,-1.846392E-1,1.1828119E0,-5.6176955E-1,-5.867753E-1,4.01944E-1,-2.0178266E-1,5.401518E-1,3.7485857E-2,1.6692647E0,3.0457997E0,1.7595016E1],"categories":[],"categories_nodes":[],"categories_segments":[],"categories_sizes":[],"default_left":[0,0,0,0,0,0,0,0,0,0,0,0,0,0,0,0,0,0,0,0,0,0,0,0,0,0,0,0,0,0,0],"id":26,"left_children":[1,3,5,7,9,11,13,15,17,19,21,23,25,27,29,-1,-1,-1,-1,-1,-1,-1,-1,-1,-1,-1,-1,-1,-1,-1,-1],"loss_changes":[6.686602E4,1.163977E4,8.0559375E4,1.735036E4,6.7843086E3,5.0197445E4,1.13042984E5,2.2689477E4,7.0930566E2,3.722418E3,1.7323941E4,6.5028613E4,3.0340336E4,5.8254062E4,1.3980172E5,0E0,0E0,0E0,0E0,0E0,0E0,0E0,0E0,0E0,0E0,0E0,0E0,0E0,0E0,0E0,0E0],"parents":[2147483647,0,0,1,1,2,2,3,3,4,4,5,5,6,6,7,7,8,8,9,9,10,10,11,11,12,12,13,13,14,14],"right_children":[2,4,6,8,10,12,14,16,18,20,22,24,26,28,30,-1,-1,-1,-1,-1,-1,-1,-1,-1,-1,-1,-1,-1,-1,-1,-1],"split_conditions":[7.1E2,-2.5E0,5.4E-1,5.3603005E-1,2.638889E1,-2.2252093E-1,2.318E3,3E0,-5.214352E-1,1.432E1,5.3603005E-1,2.28E1,2.4444445E1,6E0,3.11E1,5.2017536E0,4.1386577E-1,-1.1810153E0,-2.8429085E-1,-4.5389792E-1,-1.846392E-1,1.1828119E0,-5.6176955E-1,-5.867753E-1,4.01944E-1,-2.0178266E-1,5.401518E-1,3.7485857E-2,1.6692647E0,3.0457997E0,1.7595016E1],"split_indices":[2,6,4,10,6,11,3,1,11,5,10,9,6,1,9,0,0,0,0,0,0,0,0,0,0,0,0,0,0,0,0],"split_type":[0,0,0,0,0,0,0,0,0,0,0,0,0,0,0,0,0,0,0,0,0,0,0,0,0,0,0,0,0,0,0],"sum_hessian":[4.378E3,1.011E3,3.367E3,2E1,9.91E2,3.126E3,2.41E2,1E1,1E1,9.34E2,5.7E1,1.397E3,1.729E3,2.26E2,1.5E1,3E0,7E0,3E0,7E0,7.78E2,1.56E2,2.3E1,3.4E1,1.92E2,1.205E3,1.579E3,1.5E2,1.35E2,9.1E1,1.4E1,1E0],"tree_param":{"num_deleted":"0","num_feature":"12","num_nodes":"31","size_leaf_vector":"1"}},{"base_weights":[8.010753E-2,-1.088445E-1,7.512114E1,-6.6934114E0,1.8755778E0,-5.812637E-1,8.4958305E1,1.5686754E1,-7.1604376E0,-8.3486646E-1,8.942263E0,1.1008843E0,4.475265E0,2.1084387E0,-6.1106664E-1,-3.8874656E-1,1.4345388E-1,2.3315542E0,-5.746277E-2,2.1199985E-1,1.1009367E0],"categories":[],"categories_nodes":[],"categories_segments":[],"categories_sizes":[],"default_left":[0,0,0,0,0,0,0,0,0,0,0,0,0,0,0,0,0,0,0,0,0],"id":27,"left_children":[1,3,5,7,9,-1,11,13,15,17,19,-1,-1,-1,-1,-1,-1,-1,-1,-1,-1],"loss_changes":[6.2098695E4,5.7100355E4,1.0374402E4,1.0689879E4,6.4326113E4,0E0,8.911953E2,1.603567E4,6.1360703E3,3.6286066E4,5.7152914E4,0E0,0E0,0E0,0E0,0E0,0E0,0E0,0E0,0E0,0E0],"parents":[2147483647,0,0,1,1,2,2,3,3,4,4,6,6,7,7,8,8,9,9,10,10],"right_children":[2,4,6,8,10,-1,12,14,16,18,20,-1,-1,-1,-1,-1,-1,-1,-1,-1,-1],"split_conditions":[3.13E0,7.1E2,1.3940242E4,-2.5E0,3E-2,-5.812637E-1,1.4683859E4,5.3603005E-1,2.638889E1,9E3,2.0833334E1,1.1008843E0,4.475265E0,2.1084387E0,-6.1106664E-1,-3.8874656E-1,1.4345388E-1,2.3315542E0,-5.746277E-2,2.1199985E-1,1.1009367E0],"split_indices":[4,2,7,6,4,0,7,10,6,8,6,0,0,0,0,0,0,0,0,0,0],"split_type":[0,0,0,0,0,0,0,0,0,0,0,0,0,0,0,0,0,0,0,0,0],"sum_hessian":[4.378E3,4.368E3,1E1,1.011E3,3.357E3,1E0,9E0,2E1,9.91E2,2.427E3,9.3E2,1E0,8E0,1E1,1E1,9.34E2,5.7E1,1.5E1,2.412E3,6.85E2,2.45E2],"tree_param":{"num_deleted":"0","num_feature":"12","num_nodes":"21","size_leaf_vector":"1"}},{"base_weights":[7.834793E-2,5.976548E0,-2.1627698E0,4.9649963E0,5.5588593E1,-4.677592E0,1.3139479E0,-3.043802E0,9.850691E0,1.9105663E1,7.620464E1,-4.1423197E0,-1.6570536E1,-9.9958247E-1,1.693609E1,5.3753924E-1,-5.946725E-1,3.5581896E-1,1.9203526E0,-1.2285852E-1,3.5119E0,4.8091497E0,1.5103308E0,-3.629876E-1,-9.542634E-2,-3.2654545E-1,-9.712992E-1,-9.344791E-2,1.3122236E0,4.6580568E-1,1.9789683E0],"categories":[],"categories_nodes":[],"categories_segments":[],"categories_sizes":[],"default_left":[0,0,0,0,0,0,0,0,0,0,0,0,0,0,0,0,0,0,0,0,0,0,0,0,0,0,0,0,0,0,0],"id":28,"left_children":[1,3,5,7,9,11,13,15,17,19,21,23,25,27,29,-1,-1,-1,-1,-1,-1,-1,-1,-1,-1,-1,-1,-1,-1,-1,-1],"loss_changes":[5.7897004E4,6.0247297E4,2.7757465E4,4.6319047E4,1.6595273E4,1.1657461E4,4.8194613E4,5.4940543E4,5.7116953E4,1.1198168E4,1.0879109E4,1.2270107E4,2.137873E3,2.7571387E4,2.9308367E4,0E0,0E0,0E0,0E0,0E0,0E0,0E0,0E0,0E0,0E0,0E0,0E0,0E0,0E0,0E0,0E0],"parents":[2147483647,0,0,1,1,2,2,3,3,4,4,5,5,6,6,7,7,8,8,9,9,10,10,11,11,12,12,13,13,14,14],"right_children":[2,4,6,8,10,12,14,16,18,20,22,24,26,28,30,-1,-1,-1,-1,-1,-1,-1,-1,-1,-1,-1,-1,-1,-1,-1,-1],"split_conditions":[-5.971586E-1,1.59E0,1.546E3,9.84E0,1.437E3,1.54E3,2.4444445E1,3.884348E-1,3.06E1,1.88E0,1.536E3,7.1E2,6.111111E0,2.013E1,6E0,5.3753924E-1,-5.946725E-1,3.5581896E-1,1.9203526E0,-1.2285852E-1,3.5119E0,4.8091497E0,1.5103308E0,-3.629876E-1,-9.542634E-2,-3.2654545E-1,-9.712992E-1,-9.344791E-2,1.3122236E0,4.6580568E-1,1.9789683E0],"split_indices":[11,4,3,5,3,3,6,10,9,4,2,2,6,5,1,0,0,0,0,0,0,0,0,0,0,0,0,0,0,0,0],"split_type":[0,0,0,0,0,0,0,0,0,0,0,0,0,0,0,0,0,0,0,0,0,0,0,0,0,0,0,0,0,0,0],"sum_hessian":[4.378E3,1.205E3,3.173E3,1.182E3,2.3E1,1.841E3,1.332E3,4.48E2,7.34E2,9E0,1.4E1,1.763E3,7.8E1,1.161E3,1.71E2,1.75E2,2.73E2,6.71E2,6.3E1,7E0,2E0,9E0,5E0,7.35E2,1.028E3,1.8E1,6E1,1.126E3,3.5E1,1.29E2,4.2E1],"tree_param":{"num_deleted":"0","num_feature":"12","num_nodes":"31","size_leaf_vector":"1"}},{"base_weights":[7.7589855E-2,-2.0982175E0,5.6686597E0,-6.243438E0,-1.1304723E-1,3.22744E1,3.9084997E0,1.3059357E1,-6.941873E0,5.843372E0,-2.3098578E0,6.899107E1,2.3602842E1,-2.341567E0,1.0801532E1,-7.894923E-1,1.2381253E0,-3.6855268E-1,1.0665919E0,3.5100725E0,2.1734636E-1,-2.3566559E-1,1.1235833E-1,6.6083565E0,2.3723905E0,5.0991874E-2,1.4180202E0,-1.4158116E-1,3.599865E0,7.2046034E-2,1.7370377E0],"categories":[],"categories_nodes":[],"categories_segments":[],"categories_sizes":[],"default_left":[0,0,0,0,0,0,0,0,0,0,0,0,0,0,0,0,0,0,0,0,0,0,0,0,0,0,0,0,0,0,0],"id":29,"left_children":[1,3,5,7,9,11,13,15,17,19,21,23,25,27,29,-1,-1,-1,-1,-1,-1,-1,-1,-1,-1,-1,-1,-1,-1,-1,-1],"loss_changes":[5.328283E4,2.5945227E4,5.733471E4,1.3855523E4,2.7924068E4,2.2569305E4,4.9655656E4,1.2545551E4,1.2121891E4,5.5072105E4,1.7085695E4,1.2783227E4,6.739797E3,2.2244162E4,1.2274894E5,0E0,0E0,0E0,0E0,0E0,0E0,0E0,0E0,0E0,0E0,0E0,0E0,0E0,0E0,0E0,0E0],"parents":[2147483647,0,0,1,1,2,2,3,3,4,4,5,5,6,6,7,7,8,8,9,9,10,10,11,11,12,12,13,13,14,14],"right_children":[2,4,6,8,10,12,14,16,18,20,22,24,26,28,30,-1,-1,-1,-1,-1,-1,-1,-1,-1,-1,-1,-1,-1,-1,-1,-1],"split_conditions":[3E-2,8.95E0,2.5E0,-9.5458764E-1,-4.9845885E-2,-8.9879405E-1,1.22E3,8.28E0,2.6944445E1,9E3,2E1,7.42E2,7.04E2,3.13E0,2.0833334E1,-7.894923E-1,1.2381253E0,-3.6855268E-1,1.0665919E0,3.5100725E0,2.1734636E-1,-2.3566559E-1,1.1235833E-1,6.6083565E0,2.3723905E0,5.0991874E-2,1.4180202E0,-1.4158116E-1,3.599865E0,7.2046034E-2,1.7370377E0],"split_indices":[4,5,6,11,10,11,2,5,6,8,6,2,2,4,6,0,0,0,0,0,0,0,0,0,0,0,0,0,0,0,0],"split_type":[0,0,0,0,0,0,0,0,0,0,0,0,0,0,0,0,0,0,0,0,0,0,0,0,0,0,0,0,0,0,0],"sum_hessian":[4.378E3,3.152E3,1.226E3,1.02E3,2.132E3,7.5E1,1.151E3,3.5E1,9.85E2,5.74E2,1.558E3,1.3E1,6.2E1,6.04E2,5.47E2,1E1,2.5E1,9.71E2,1.4E1,1.2E1,5.62E2,1.02E3,5.38E2,2E0,1.1E1,1.1E1,5.1E1,6.01E2,3E0,3.94E2,1.53E2],"tree_param":{"num_deleted":"0","num_feature":"12","num_nodes":"31","size_leaf_vector":"1"}},{"base_weights":[7.83845E-2,-9.152222E-2,6.7555115E1,-6.0619917E0,1.7078246E0,-6.062915E-1,7.6735794E1,1.4870877E1,-6.499016E0,-6.8143E-1,7.9370427E0,1.0338029E0,4.0333657E0,1.9922297E0,-5.7273674E-1,-3.5359105E-1,1.4235254E-1,2.104756E0,-4.8239406E-2,1.8744728E-1,9.791891E-1],"categories":[],"categories_nodes":[],"categories_segments":[],"categories_sizes":[],"default_left":[0,0,0,0,0,0,0,0,0,0,0,0,0,0,0,0,0,0,0,0,0],"id":30,"left_children":[1,3,5,7,9,-1,11,13,15,17,19,-1,-1,-1,-1,-1,-1,-1,-1,-1,-1],"loss_changes":[5.021032E4,4.6946277E4,8.977266E3,9.354598E3,4.9983152E4,0E0,5.361211E2,1.4262823E4,5.3307812E3,2.947061E4,4.5338598E4,0E0,0E0,0E0,0E0,0E0,0E0,0E0,0E0,0E0,0E0],"parents":[2147483647,0,0,1,1,2,2,3,3,4,4,6,6,7,7,8,8,9,9,10,10],"right_children":[2,4,6,8,10,-1,12,14,16,18,20,-1,-1,-1,-1,-1,-1,-1,-1,-1,-1],"split_conditions":[3.13E0,7.1E2,1.3940242E4,-2.5E0,3E-2,-6.062915E-1,1.4683859E4,5.3603005E-1,2.638889E1,9E3,2.0833334E1,1.0338029E0,4.0333657E0,1.9922297E0,-5.7273674E-1,-3.5359105E-1,1.4235254E-1,2.104756E0,-4.8239406E-2,1.8744728E-1,9.791891E-1],"split_indices":[4,2,7,6,4,0,7,10,6,8,6,0,0,0,0,0,0,0,0,0,0],"split_type":[0,0,0,0,0,0,0,0,0,0,0,0,0,0,0,0,0,0,0,0,0],"sum_hessian":[4.378E3,4.368E3,1E1,1.011E3,3.357E3,1E0,9E0,2E1,9.91E2,2.427E3,9.3E2,1E0,8E0,1E1,1E1,9.34E2,5.7E1,1.5E1,2.412E3,6.85E2,2.45E2],"tree_param":{"num_deleted":"0","num_feature":"12","num_nodes":"21","size_leaf_vector":"1"}},{"base_weights":[7.6495916E-2,5.4928117E0,-1.9815234E0,4.558358E0,5.1324715E1,-4.23278E0,1.1308516E0,-1.2966474E1,6.641128E0,1.6984638E1,7.0796455E1,-3.7142944E0,-1.575652E1,-2.519031E0,9.441196E0,-8.7998915E-1,2.7654305E-1,3.9105153E0,2.941794E-1,-1.1610853E-1,3.1403959E0,4.4672737E0,1.4041004E0,-3.234633E-1,-8.700854E-2,-6.715721E-1,-1.5228208E0,1.3546786E-1,-4.1435358E-1,3.762463E0,2.6518032E-1],"categories":[],"categories_nodes":[],"categories_segments":[],"categories_sizes":[],"default_left":[0,0,0,0,0,0,0,0,0,0,0,0,0,0,0,0,0,0,0,0,0,0,0,0,0,0,0,0,0,0,0],"id":31,"left_children":[1,3,5,7,9,11,13,15,17,19,21,23,25,27,29,-1,-1,-1,-1,-1,-1,-1,-1,-1,-1,-1,-1,-1,-1,-1,-1],"loss_changes":[4.8823082E4,5.141635E4,2.2244227E4,4.3265836E4,1.4845418E4,1.0947227E4,4.0456047E4,1.0896033E4,5.690093E4,8.992864E3,9.375664E3,9.582529E3,2.2910215E3,2.7978508E4,1.1042165E5,0E0,0E0,0E0,0E0,0E0,0E0,0E0,0E0,0E0,0E0,0E0,0E0,0E0,0E0,0E0,0E0],"parents":[2147483647,0,0,1,1,2,2,3,3,4,4,5,5,6,6,7,7,8,8,9,9,10,10,11,11,12,12,13,13,14,14],"right_children":[2,4,6,8,10,12,14,16,18,20,22,24,26,28,30,-1,-1,-1,-1,-1,-1,-1,-1,-1,-1,-1,-1,-1,-1,-1,-1],"split_conditions":[-5.971586E-1,1.59E0,1.546E3,2.28E1,1.437E3,1.54E3,2E1,7E0,-2.5E0,1.88E0,1.536E3,7.1E2,2.388889E1,2.44E1,2.0277779E1,-8.7998915E-1,2.7654305E-1,3.9105153E0,2.941794E-1,-1.1610853E-1,3.1403959E0,4.4672737E0,1.4041004E0,-3.234633E-1,-8.700854E-2,-6.715721E-1,-1.5228208E0,1.3546786E-1,-4.1435358E-1,3.762463E0,2.6518032E-1],"split_indices":[11,4,3,9,3,3,6,1,6,4,2,2,6,9,6,0,0,0,0,0,0,0,0,0,0,0,0,0,0,0,0],"split_type":[0,0,0,0,0,0,0,0,0,0,0,0,0,0,0,0,0,0,0,0,0,0,0,0,0,0,0,0,0,0,0],"sum_hessian":[4.378E3,1.205E3,3.173E3,1.182E3,2.3E1,1.841E3,1.332E3,1.25E2,1.057E3,9E0,1.4E1,1.763E3,7.8E1,9.26E2,4.06E2,1E2,2.5E1,1E1,1.047E3,7E0,2E0,9E0,5E0,7.35E2,1.028E3,6.9E1,9E0,4.86E2,4.4E2,2.3E1,3.83E2],"tree_param":{"num_deleted":"0","num_feature":"12","num_nodes":"31","size_leaf_vector":"1"}},{"base_weights":[7.5786225E-2,5.2285337E0,-1.8820869E0,-3.1469755E0,1.0182855E1,-4.0225554E0,1.0771214E0,-4.9653044E0,5.821893E1,5.801508E0,2.4531786E1,-3.5288126E0,-1.4996471E1,-8.122492E-1,1.6096094E1,-3.5697415E-1,1.6373081E0,1.8728983E0,3.809853E0,2.3771935E0,1.8820082E-1,5.5701935E-1,7.9293237E0,-3.073121E-1,-8.266235E-2,-6.384732E-1,-1.454294E0,2.374188E-1,-2.3291567E-1,2.978916E-1,1.9697174E0],"categories":[],"categories_nodes":[],"categories_segments":[],"categories_sizes":[],"default_left":[0,0,0,0,0,0,0,0,0,0,0,0,0,0,0,0,0,0,0,0,0,0,0,0,0,0,0,0,0,0,0],"id":32,"left_children":[1,3,5,7,9,11,13,15,17,19,21,23,25,27,29,-1,-1,-1,-1,-1,-1,-1,-1,-1,-1,-1,-1,-1,-1,-1,-1],"loss_changes":[4.418706E4,5.0074965E4,2.0108736E4,5.0390023E4,4.7511344E4,9.92757E3,3.783882E4,3.606406E4,1.9979766E3,4.931997E4,3.1598012E5,8.649596E3,2.1073906E3,2.5365146E4,3.4959664E4,0E0,0E0,0E0,0E0,0E0,0E0,0E0,0E0,0E0,0E0,0E0,0E0,0E0,0E0,0E0,0E0],"parents":[2147483647,0,0,1,1,2,2,3,3,4,4,5,5,6,6,7,7,8,8,9,9,10,10,11,11,12,12,13,13,14,14],"right_children":[2,4,6,8,10,12,14,16,18,20,22,24,26,28,30,-1,-1,-1,-1,-1,-1,-1,-1,-1,-1,-1,-1,-1,-1,-1,-1],"split_conditions":[-5.971586E-1,9.84E0,1.546E3,2.6944445E1,1.921E3,1.54E3,2.4722221E1,5.4E-1,1.159E3,1.1E4,3.06E1,7.1E2,2.388889E1,1.619E3,4E-2,-3.5697415E-1,1.6373081E0,1.8728983E0,3.809853E0,2.3771935E0,1.8820082E-1,5.5701935E-1,7.9293237E0,-3.073121E-1,-8.266235E-2,-6.384732E-1,-1.454294E0,2.374188E-1,-2.3291567E-1,2.978916E-1,1.9697174E0],"split_indices":[11,5,3,6,3,3,6,4,2,8,9,2,6,2,4,0,0,0,0,0,0,0,0,0,0,0,0,0,0,0,0],"split_type":[0,0,0,0,0,0,0,0,0,0,0,0,0,0,0,0,0,0,0,0,0,0,0,0,0,0,0,0,0,0,0],"sum_hessian":[4.378E3,1.205E3,3.173E3,4.48E2,7.57E2,1.841E3,1.332E3,4.36E2,1.2E1,5.81E2,1.76E2,1.763E3,7.8E1,1.184E3,1.48E2,4.13E2,2.3E1,7E0,5E0,2.6E1,5.55E2,1.61E2,1.5E1,7.35E2,1.028E3,6.9E1,9E0,4.84E2,7E2,1.04E2,4.4E1],"tree_param":{"num_deleted":"0","num_feature":"12","num_nodes":"31","size_leaf_vector":"1"}},{"base_weights":[7.606276E-2,-7.775337E-1,1.1053721E1,2.3861034E0,-3.3368194E0,6.683599E0,9.257578E1,-1.0673169E1,4.4269137E0,-4.860746E0,2.123212E0,-2.7412283E0,2.152898E1,5.3931194E1,1.6806116E1,-1.7468229E-1,-7.120814E-1,-5.736289E-2,5.2032614E-1,9.694852E-1,-2.6752672E-1,1.2151114E-2,1.195395E0,7.75485E-1,-3.6274704E-1,5.5071993E0,8.294763E-1,9.94672E-1,5.901401E0],"categories":[],"categories_nodes":[],"categories_segments":[],"categories_sizes":[],"default_left":[0,0,0,0,0,0,0,0,0,0,0,0,0,0,0,0,0,0,0,0,0,0,0,0,0,0,0,0,0],"id":33,"left_children":[1,3,5,7,9,11,13,15,17,19,21,23,25,27,-1,-1,-1,-1,-1,-1,-1,-1,-1,-1,-1,-1,-1,-1,-1],"loss_changes":[4.1041973E4,3.2912754E4,1.1195985E5,4.849967E4,1.8706902E4,4.2173477E4,1.3246061E5,6.2527285E3,5.2442176E4,2.0972656E4,2.010523E4,1.5352716E4,4.9384816E4,3.0377695E4,0E0,0E0,0E0,0E0,0E0,0E0,0E0,0E0,0E0,0E0,0E0,0E0,0E0,0E0,0E0],"parents":[2147483647,0,0,1,1,2,2,3,3,4,4,5,5,6,6,7,7,8,8,9,9,10,10,11,11,12,12,13,13],"right_children":[2,4,6,8,10,12,14,16,18,20,22,24,26,28,-1,-1,-1,-1,-1,-1,-1,-1,-1,-1,-1,-1,-1,-1,-1],"split_conditions":[5.4E-1,-2.2252093E-1,2.318E3,2.28E1,1.342E1,6E0,3.11E1,2E0,1.22E3,-1.9444444E0,2.111111E1,6.388889E0,9.674286E3,9.6484196E-1,1.6806116E1,-1.7468229E-1,-7.120814E-1,-5.736289E-2,5.2032614E-1,9.694852E-1,-2.6752672E-1,1.2151114E-2,1.195395E0,7.75485E-1,-3.6274704E-1,5.5071993E0,8.294763E-1,9.94672E-1,5.901401E0],"split_indices":[4,11,3,9,5,1,9,0,2,6,6,6,7,10,0,0,0,0,0,0,0,0,0,0,0,0,0,0,0],"split_type":[0,0,0,0,0,0,0,0,0,0,0,0,0,0,0,0,0,0,0,0,0,0,0,0,0,0,0,0,0],"sum_hessian":[4.378E3,4.063E3,3.15E2,1.817E3,2.246E3,3E2,1.5E1,2.45E2,1.572E3,1.756E3,4.9E2,1.84E2,1.16E2,1.4E1,1E0,8.2E1,1.63E2,8.14E2,7.58E2,3.4E1,1.722E3,4.52E2,3.8E1,3.6E1,1.48E2,5E0,1.11E2,1E1,4E0],"tree_param":{"num_deleted":"0","num_feature":"12","num_nodes":"29","size_leaf_vector":"1"}},{"base_weights":[7.9552956E-2,-1.7811911E0,4.861009E0,1.795341E-1,-5.518481E0,2.9762186E1,3.2140033E0,-1.7726426E0,6.576172E0,-3.0909312E0,-1.3407796E1,6.300883E1,2.1901628E1,7.0487027E0,-6.523758E0,-1.671862E-1,3.2397103E-1,1.1555576E0,9.671307E-2,1.0861194E0,-2.6300415E-1,-4.5337388E-1,-9.811209E-1,6.2170377E0,2.1212556E0,-3.3126804E-1,1.2510351E0,6.090345E-2,9.8796415E-1,-7.9160994E-1,-2.9013995E-2],"categories":[],"categories_nodes":[],"categories_segments":[],"categories_sizes":[],"default_left":[0,0,0,0,0,0,0,0,0,0,0,0,0,0,0,0,0,0,0,0,0,0,0,0,0,0,0,0,0,0,0],"id":34,"left_children":[1,3,5,7,9,11,13,15,17,19,21,23,25,27,29,-1,-1,-1,-1,-1,-1,-1,-1,-1,-1,-1,-1,-1,-1,-1,-1],"loss_changes":[3.896891E4,2.310554E4,5.0226527E4,2.584802E4,2.0738152E4,1.8481633E4,4.3063258E4,2.0583621E4,3.7104184E4,4.4841895E4,6.700301E3,1.239898E4,5.771375E3,6.1265516E4,1.8026604E4,0E0,0E0,0E0,0E0,0E0,0E0,0E0,0E0,0E0,0E0,0E0,0E0,0E0,0E0,0E0,0E0],"parents":[2147483647,0,0,1,1,2,2,3,3,4,4,5,5,6,6,7,7,8,8,9,9,10,10,11,11,12,12,13,13,14,14],"right_children":[2,4,6,8,10,12,14,16,18,20,22,24,26,28,30,-1,-1,-1,-1,-1,-1,-1,-1,-1,-1,-1,-1,-1,-1,-1,-1],"split_conditions":[3E-2,9E0,2.5E0,7E0,2.83E1,-8.9879405E-1,5.814483E-2,7E0,2.361111E1,-5.214352E-1,1.23E3,7.42E2,6.06E2,2.0833334E1,1.007E1,-1.671862E-1,3.2397103E-1,1.1555576E0,9.671307E-2,1.0861194E0,-2.6300415E-1,-4.5337388E-1,-9.811209E-1,6.2170377E0,2.1212556E0,-3.3126804E-1,1.2510351E0,6.090345E-2,9.8796415E-1,-7.9160994E-1,-2.9013995E-2],"split_indices":[4,0,6,0,9,11,11,1,6,11,2,2,2,6,5,0,0,0,0,0,0,0,0,0,0,0,0,0,0,0,0],"split_type":[0,0,0,0,0,0,0,0,0,0,0,0,0,0,0,0,0,0,0,0,0,0,0,0,0,0,0,0,0,0,0],"sum_hessian":[4.378E3,3.152E3,1.226E3,2.068E3,1.084E3,7.5E1,1.151E3,1.585E3,4.83E2,8.3E2,2.54E2,1.3E1,6.2E1,8.26E2,3.25E2,1.332E3,2.53E2,1.05E2,3.78E2,6.6E1,7.64E2,1.51E2,1.03E2,2E0,1.1E1,6E0,5.6E1,5.67E2,2.59E2,1.26E2,1.99E2],"tree_param":{"num_deleted":"0","num_feature":"12","num_nodes":"31","size_leaf_vector":"1"}},{"base_weights":[7.7923864E-2,-7.071948E-2,5.9109272E1,-5.1997514E0,1.5271214E0,-6.6242164E-1,6.766989E1,1.4144848E1,-5.5936975E0,-5.4790986E-1,6.967908E0,9.366701E-1,3.5512893E0,1.88193E0,-5.317399E-1,-3.0462813E-1,1.3842136E-1,-2.6281312E-1,8.499934E-2,1.5662645E0,2.6160654E-1],"categories":[],"categories_nodes":[],"categories_segments":[],"categories_sizes":[],"default_left":[0,0,0,0,0,0,0,0,0,0,0,0,0,0,0,0,0,0,0,0,0],"id":35,"left_children":[1,3,5,7,9,-1,11,13,15,17,19,-1,-1,-1,-1,-1,-1,-1,-1,-1,-1],"loss_changes":[3.842823E4,3.5813543E4,7.710211E3,7.9894316E3,3.7621438E4,0E0,3.1169922E2,1.2625781E4,4.2635312E3,2.5547863E4,3.8732758E4,0E0,0E0,0E0,0E0,0E0,0E0,0E0,0E0,0E0,0E0],"parents":[2147483647,0,0,1,1,2,2,3,3,4,4,6,6,7,7,8,8,9,9,10,10],"right_children":[2,4,6,8,10,-1,12,14,16,18,20,-1,-1,-1,-1,-1,-1,-1,-1,-1,-1],"split_conditions":[3.13E0,1.028E3,1.3940242E4,-2.5E0,3E-2,-6.6242164E-1,1.4683859E4,5.3603005E-1,2.638889E1,8.95E0,2.5E0,9.366701E-1,3.5512893E0,1.88193E0,-5.317399E-1,-3.0462813E-1,1.3842136E-1,-2.6281312E-1,8.499934E-2,1.5662645E0,2.6160654E-1],"split_indices":[4,3,7,6,4,0,7,10,6,5,6,0,0,0,0,0,0,0,0,0,0],"split_type":[0,0,0,0,0,0,0,0,0,0,0,0,0,0,0,0,0,0,0,0,0],"sum_hessian":[4.378E3,4.368E3,1E1,1.037E3,3.331E3,1E0,9E0,2E1,1.017E3,2.412E3,9.19E2,1E0,8E0,1E1,1E1,9.6E2,5.7E1,7.79E2,1.633E3,6E1,8.59E2],"tree_param":{"num_deleted":"0","num_feature":"12","num_nodes":"21","size_leaf_vector":"1"}},{"base_weights":[7.554846E-2,-6.6534854E-2,5.650159E1,4.967703E0,-1.5371914E0,-6.458611E-1,6.473519E1,1.14118004E2,4.2964215E0,-3.432603E0,2.6640835E0,9.132534E-1,3.3934543E0,3.8890895E-1,1.614543E1,-2.1916274E-2,5.794655E-1,1.6556013E-1,-2.7634886E-1,1.8371485E0,3.3744905E-2],"categories":[],"categories_nodes":[],"categories_segments":[],"categories_sizes":[],"default_left":[0,0,0,0,0,0,0,0,0,0,0,0,0,0,0,0,0,0,0,0,0],"id":36,"left_children":[1,3,5,7,9,-1,11,13,15,17,19,-1,-1,-1,-1,-1,-1,-1,-1,-1,-1],"loss_changes":[3.5111074E4,3.2354117E4,7.1234375E3,7.190101E4,2.6940502E4,0E0,2.166914E2,1.30704875E5,3.3948047E4,3.294147E4,7.128947E4,0E0,0E0,0E0,0E0,0E0,0E0,0E0,0E0,0E0,0E0],"parents":[2147483647,0,0,1,1,2,2,3,3,4,4,6,6,7,7,8,8,9,9,10,10],"right_children":[2,4,6,8,10,-1,12,14,16,18,20,-1,-1,-1,-1,-1,-1,-1,-1,-1,-1],"split_conditions":[3.13E0,-6.4278764E-1,1.3940242E4,-6.862416E-1,2E1,-6.458611E-1,1.4683859E4,1.538E3,1E-2,3.6111112E0,2.0277779E1,9.132534E-1,3.3934543E0,3.8890895E-1,1.614543E1,-2.1916274E-2,5.794655E-1,1.6556013E-1,-2.7634886E-1,1.8371485E0,3.3744905E-2],"split_indices":[4,11,7,10,6,0,7,2,4,6,6,0,0,0,0,0,0,0,0,0,0],"split_type":[0,0,0,0,0,0,0,0,0,0,0,0,0,0,0,0,0,0,0,0,0],"sum_hessian":[4.378E3,4.368E3,1E1,9.87E2,3.381E3,1E0,9E0,5E0,9.82E2,2.33E3,1.051E3,1E0,8E0,4E0,1E0,5.96E2,3.86E2,5.52E2,1.778E3,5.7E1,9.94E2],"tree_param":{"num_deleted":"0","num_feature":"12","num_nodes":"21","size_leaf_vector":"1"}},{"base_weights":[7.691225E-2,-4.9432287E0,1.6361072E0,1.3333441E1,-5.315397E0,6.3471276E-1,1.4576486E1,4.7824066E1,-3.6510797E0,-5.785967E0,2.57311E0,-5.197147E-1,8.786021E0,9.277839E0,8.817768E1,-3.8746604E-1,4.572072E0,-1.0337805E0,1.1640101E-1,-5.4096144E-1,-2.5613278E-1,1.0528706E0,-5.087679E-1,-2.8562418E-1,1.03275895E-1,-1.698636E-2,1.4230763E0,-8.0989294E-2,1.252481E0,2.5241115E0,1.6340239E1],"categories":[],"categories_nodes":[],"categories_segments":[],"categories_sizes":[],"default_left":[0,0,0,0,0,0,0,0,0,0,0,0,0,0,0,0,0,0,0,0,0,0,0,0,0,0,0,0,0,0,0],"id":37,"left_children":[1,3,5,7,9,11,13,15,17,19,21,23,25,27,29,-1,-1,-1,-1,-1,-1,-1,-1,-1,-1,-1,-1,-1,-1,-1,-1],"loss_changes":[3.4284184E4,7.131336E3,4.3297797E4,1.247655E4,3.7938027E3,2.9204088E4,9.277872E4,1.7676363E4,1.5750037E3,3.1529863E3,1.3881766E4,3.651306E4,6.913784E4,3.8712438E4,1.2742466E5,0E0,0E0,0E0,0E0,0E0,0E0,0E0,0E0,0E0,0E0,0E0,0E0,0E0,0E0,0E0,0E0],"parents":[2147483647,0,0,1,1,2,2,3,3,4,4,5,5,6,6,7,7,8,8,9,9,10,10,11,11,12,12,13,13,14,14],"right_children":[2,4,6,8,10,12,14,16,18,20,22,24,26,28,30,-1,-1,-1,-1,-1,-1,-1,-1,-1,-1,-1,-1,-1,-1,-1,-1],"split_conditions":[1.028E3,-2.5E0,5.4E-1,3E0,2.638889E1,2.4444445E1,2.318E3,1.89E1,-5.214352E-1,-8.660254E-1,5.3603005E-1,9.4E0,1.921E3,6E0,3.11E1,-3.8746604E-1,4.572072E0,-1.0337805E0,1.1640101E-1,-5.4096144E-1,-2.5613278E-1,1.0528706E0,-5.087679E-1,-2.8562418E-1,1.03275895E-1,-1.698636E-2,1.4230763E0,-8.0989294E-2,1.252481E0,2.5241115E0,1.6340239E1],"split_indices":[3,6,4,1,6,6,3,9,11,11,10,5,3,1,9,0,0,0,0,0,0,0,0,0,0,0,0,0,0,0,0],"split_type":[0,0,0,0,0,0,0,0,0,0,0,0,0,0,0,0,0,0,0,0,0,0,0,0,0,0,0,0,0,0,0],"sum_hessian":[4.378E3,1.037E3,3.341E3,2E1,1.017E3,3.102E3,2.39E2,6E0,1.4E1,9.6E2,5.7E1,2.718E3,3.84E2,2.24E2,1.5E1,3E0,3E0,3E0,1.1E1,1.1E2,8.5E2,2.3E1,3.4E1,9.03E2,1.815E3,2.63E2,1.21E2,1.33E2,9.1E1,1.4E1,1E0],"tree_param":{"num_deleted":"0","num_feature":"12","num_nodes":"31","size_leaf_vector":"1"}},{"base_weights":[7.860986E-2,-4.7733674E0,1.5364847E0,1.2822351E1,-5.1410456E0,2.8947315E1,1.1146978E0,4.6030663E1,-3.5296843E0,-5.6066732E0,2.4538352E0,3.8524597E1,-3.6756264E1,-9.433518E-1,5.9902034E0,-3.7293607E-1,4.400619E0,-9.9501365E-1,1.1106594E-1,-5.169028E-1,-2.504256E-1,1.4447311E0,-2.9133582E-1,3.299146E0,-1.2613623E-1,1.8584585E-2,-2.1503103E0,6.1137985E-2,-2.4910294E-1,1.3780102E-1,8.992638E-1],"categories":[],"categories_nodes":[],"categories_segments":[],"categories_sizes":[],"default_left":[0,0,0,0,0,0,0,0,0,0,0,0,0,0,0,0,0,0,0,0,0,0,0,0,0,0,0,0,0,0,0],"id":38,"left_children":[1,3,5,7,9,11,13,15,17,19,21,23,25,27,29,-1,-1,-1,-1,-1,-1,-1,-1,-1,-1,-1,-1,-1,-1,-1,-1],"loss_changes":[3.0982521E4,6.613117E3,3.890696E4,1.1565966E4,3.5218535E3,3.3508363E4,3.3298566E4,1.6375495E4,1.4564144E3,2.5943926E3,1.286713E4,5.0885523E4,1.6403174E3,2.04246E4,3.816278E4,0E0,0E0,0E0,0E0,0E0,0E0,0E0,0E0,0E0,0E0,0E0,0E0,0E0,0E0,0E0,0E0],"parents":[2147483647,0,0,1,1,2,2,3,3,4,4,5,5,6,6,7,7,8,8,9,9,10,10,11,11,12,12,13,13,14,14],"right_children":[2,4,6,8,10,12,14,16,18,20,22,24,26,28,30,-1,-1,-1,-1,-1,-1,-1,-1,-1,-1,-1,-1,-1,-1,-1,-1],"split_conditions":[7.1E2,-2.5E0,1.1E4,3E0,2.638889E1,2.1666666E1,2E-2,1.89E1,-5.214352E-1,-8.660254E-1,-8.2623875E-1,-4.3388373E-1,8.05E2,9E0,2.94E1,-3.7293607E-1,4.400619E0,-9.9501365E-1,1.1106594E-1,-5.169028E-1,-2.504256E-1,1.4447311E0,-2.9133582E-1,3.299146E0,-1.2613623E-1,1.8584585E-2,-2.1503103E0,6.1137985E-2,-2.4910294E-1,1.3780102E-1,8.992638E-1],"split_indices":[2,6,8,1,6,6,4,9,11,11,11,11,2,0,9,0,0,0,0,0,0,0,0,0,0,0,0,0,0,0,0],"split_type":[0,0,0,0,0,0,0,0,0,0,0,0,0,0,0,0,0,0,0,0,0,0,0,0,0,0,0,0,0,0,0],"sum_hessian":[4.378E3,1.011E3,3.367E3,2E1,9.91E2,5E1,3.317E3,6E0,1.4E1,9.34E2,5.7E1,4.4E1,6E0,2.333E3,9.84E2,3E0,3E0,3E0,1.1E1,1.03E2,8.31E2,1.3E1,4.4E1,2.6E1,1.8E1,1E0,5E0,1.519E3,8.14E2,7.76E2,2.08E2],"tree_param":{"num_deleted":"0","num_feature":"12","num_nodes":"31","size_leaf_vector":"1"}},{"base_weights":[7.5917065E-2,4.1884165E0,-1.4867013E0,-3.299391E0,8.618281E0,6.1186433E0,-2.0969002E0,-5.0048466E0,5.4283955E1,3.778188E1,6.6810517E0,1.2136462E1,-1.3906116E1,-2.91313E0,4.935931E0,1.7164339E0,-3.3393264E-1,1.7218742E0,3.5849297E0,1.5745438E1,1.245577E0,-6.0033526E-2,6.984782E-1,1.903071E-1,1.2121397E0,-9.799819E-1,-4.2540962E-1,-3.1103715E-1,-6.419476E-2,-9.1013743E-4,5.182622E-1],"categories":[],"categories_nodes":[],"categories_segments":[],"categories_sizes":[],"default_left":[0,0,0,0,0,0,0,0,0,0,0,0,0,0,0,0,0,0,0,0,0,0,0,0,0,0,0,0,0,0,0],"id":39,"left_children":[1,3,5,7,9,11,13,15,17,19,21,23,25,27,29,-1,-1,-1,-1,-1,-1,-1,-1,-1,-1,-1,-1,-1,-1,-1,-1],"loss_changes":[2.814685E4,4.003142E4,1.4742645E4,4.436611E4,4.2571992E4,2.860804E4,1.6885438E4,2.8999908E4,2.0239258E3,1.5979084E5,4.091834E4,1.8262357E4,1.5235684E3,1.418632E4,8.230837E3,0E0,0E0,0E0,0E0,0E0,0E0,0E0,0E0,0E0,0E0,0E0,0E0,0E0,0E0,0E0,0E0],"parents":[2147483647,0,0,1,1,2,2,3,3,4,4,5,5,6,6,7,7,8,8,9,9,10,10,11,11,12,12,13,13,14,14],"right_children":[2,4,6,8,10,12,14,16,18,20,22,24,26,28,30,-1,-1,-1,-1,-1,-1,-1,-1,-1,-1,-1,-1,-1,-1,-1,-1],"split_conditions":[-5.971586E-1,9.84E0,1.2432661E4,2.6944445E1,1.029E1,9E0,1.2E1,9.674286E3,1.159E3,-6.862416E-1,3.4202015E-1,1.544E3,3E0,9.17E0,2E-2,1.7164339E0,-3.3393264E-1,1.7218742E0,3.5849297E0,1.5745438E1,1.245577E0,-6.0033526E-2,6.984782E-1,1.903071E-1,1.2121397E0,-9.799819E-1,-4.2540962E-1,-3.1103715E-1,-6.419476E-2,-9.1013743E-4,5.182622E-1],"split_indices":[11,5,7,6,5,0,0,7,2,10,10,3,1,5,4,0,0,0,0,0,0,0,0,0,0,0,0,0,0,0,0],"split_type":[0,0,0,0,0,0,0,0,0,0,0,0,0,0,0,0,0,0,0,0,0,0,0,0,0,0,0,0,0,0,0],"sum_hessian":[4.378E3,1.205E3,3.173E3,4.48E2,7.57E2,2.35E2,2.938E3,4.36E2,1.2E1,4.6E1,7.11E2,1.81E2,5.4E1,2.633E3,3.05E2,1.7E1,4.19E2,7E0,5E0,1E0,4.5E1,3.42E2,3.69E2,1.08E2,7.3E1,2.5E1,2.9E1,8.68E2,1.765E3,1.6E2,1.45E2],"tree_param":{"num_deleted":"0","num_feature":"12","num_nodes":"31","size_leaf_vector":"1"}},{"base_weights":[7.77064E-2,-4.4282427E0,1.4771969E0,1.2268053E1,-4.7683153E0,5.6481117E-1,1.326743E1,4.4232506E1,-3.4665618E0,-3.6225893E0,-7.537493E0,-5.038184E-1,8.110367E0,8.169189E0,8.413223E1,-3.5654363E-1,4.226888E0,-9.7436017E-1,1.081266E-1,-3.1753558E-1,1.7896058E-1,-3.242604E-2,-4.7134802E-1,-2.6001558E-1,9.171805E-2,-8.784092E-2,1.2227187E0,-9.866499E-2,1.1426575E0,2.3681476E0,1.5891788E1],"categories":[],"categories_nodes":[],"categories_segments":[],"categories_sizes":[],"default_left":[0,0,0,0,0,0,0,0,0,0,0,0,0,0,0,0,0,0,0,0,0,0,0,0,0,0,0,0,0,0,0],"id":40,"left_children":[1,3,5,7,9,11,13,15,17,19,21,23,25,27,29,-1,-1,-1,-1,-1,-1,-1,-1,-1,-1,-1,-1,-1,-1,-1,-1],"loss_changes":[2.7620664E4,5.952211E3,3.594321E4,1.071525E4,3.2025234E3,2.5024828E4,8.602132E4,1.5094324E4,1.3948672E3,1.42081455E4,3.8597832E3,2.986754E4,6.2131664E4,3.3554773E4,1.2243615E5,0E0,0E0,0E0,0E0,0E0,0E0,0E0,0E0,0E0,0E0,0E0,0E0,0E0,0E0,0E0,0E0],"parents":[2147483647,0,0,1,1,2,2,3,3,4,4,5,5,6,6,7,7,8,8,9,9,10,10,11,11,12,12,13,13,14,14],"right_children":[2,4,6,8,10,12,14,16,18,20,22,24,26,28,30,-1,-1,-1,-1,-1,-1,-1,-1,-1,-1,-1,-1,-1,-1,-1,-1],"split_conditions":[1.028E3,-2.5E0,5.4E-1,3E0,9E0,2.4444445E1,2.318E3,1.89E1,-5.214352E-1,7E0,2.39E1,9.4E0,1.557E3,6E0,3.11E1,-3.5654363E-1,4.226888E0,-9.7436017E-1,1.081266E-1,-3.1753558E-1,1.7896058E-1,-3.242604E-2,-4.7134802E-1,-2.6001558E-1,9.171805E-2,-8.784092E-2,1.2227187E0,-9.866499E-2,1.1426575E0,2.3681476E0,1.5891788E1],"split_indices":[3,6,4,1,0,6,3,9,11,0,9,5,2,1,9,0,0,0,0,0,0,0,0,0,0,0,0,0,0,0,0],"split_type":[0,0,0,0,0,0,0,0,0,0,0,0,0,0,0,0,0,0,0,0,0,0,0,0,0,0,0,0,0,0,0],"sum_hessian":[4.378E3,1.037E3,3.341E3,2E1,1.017E3,3.102E3,2.39E2,6E0,1.4E1,7.21E2,2.96E2,2.718E3,3.84E2,2.24E2,1.5E1,3E0,3E0,3E0,1.1E1,5.23E2,1.98E2,6.4E1,2.32E2,9.03E2,1.815E3,2.4E2,1.44E2,1.33E2,9.1E1,1.4E1,1E0],"tree_param":{"num_deleted":"0","num_feature":"12","num_nodes":"31","size_leaf_vector":"1"}},{"base_weights":[7.898951E-2,2.6730905E0,-2.1495924E0,-9.968317E0,4.419641E0,-3.0192916E0,7.0892324E0,-2.850557E0,-1.3509816E1,7.3901944E0,-4.422317E0,-5.597183E0,1.0199307E0,3.2558804E1,1.4038228E0,-3.7201974E-1,5.107006E-1,-8.5937387E-1,-3.6705333E-1,8.701063E-2,6.889335E-1,2.9013321E0,-2.9902866E-1,-3.5663864E-1,1.4248282E-1,-4.1258857E-1,1.3957018E-1,3.3597824E-1,3.5004194E0,2.9296944E-1,-6.2159014E-1],"categories":[],"categories_nodes":[],"categories_segments":[],"categories_sizes":[],"default_left":[0,0,0,0,0,0,0,0,0,0,0,0,0,0,0,0,0,0,0,0,0,0,0,0,0,0,0,0,0,0,0],"id":41,"left_children":[1,3,5,7,9,11,13,15,17,19,21,23,25,27,29,-1,-1,-1,-1,-1,-1,-1,-1,-1,-1,-1,-1,-1,-1,-1,-1],"loss_changes":[2.5321475E4,4.4731664E4,1.895186E4,6.162543E3,4.6759023E4,2.2434615E4,2.93497E4,5.053029E3,3.5944277E3,4.8054242E4,4.394258E4,1.7077031E4,1.3819671E4,3.5333312E4,1.0367647E4,0E0,0E0,0E0,0E0,0E0,0E0,0E0,0E0,0E0,0E0,0E0,0E0,0E0,0E0,0E0,0E0],"parents":[2147483647,0,0,1,1,2,2,3,3,4,4,5,5,6,6,7,7,8,8,9,9,10,10,11,11,12,12,13,13,14,14],"right_children":[2,4,6,8,10,12,14,16,18,20,22,24,26,28,30,-1,-1,-1,-1,-1,-1,-1,-1,-1,-1,-1,-1,-1,-1,-1,-1],"split_conditions":[-2.2252093E-1,2.28E1,2.4722221E1,2E0,9E0,6.156615E-1,2.5277779E1,4.1666665E0,6E0,1.22E3,-6.862416E-1,8E-2,7.61E0,1.22E3,2.419219E-1,-3.7201974E-1,5.107006E-1,-8.5937387E-1,-3.6705333E-1,8.701063E-2,6.889335E-1,2.9013321E0,-2.9902866E-1,-3.5663864E-1,1.4248282E-1,-4.1258857E-1,1.3957018E-1,3.3597824E-1,3.5004194E0,2.9296944E-1,-6.2159014E-1],"split_indices":[11,9,6,0,0,11,6,6,1,2,10,4,5,2,11,0,0,0,0,0,0,0,0,0,0,0,0,0,0,0,0],"split_type":[0,0,0,0,0,0,0,0,0,0,0,0,0,0,0,0,0,0,0,0,0,0,0,0,0,0,0,0,0,0,0],"sum_hessian":[4.378E3,2.023E3,2.355E3,2.45E2,1.778E3,2.153E3,2.02E2,8.2E1,1.63E2,1.331E3,4.47E2,1.314E3,8.39E2,3.6E1,1.66E2,6.1E1,2.1E1,1.01E2,6.2E1,7.07E2,6.24E2,1E1,4.37E2,1.112E3,2.02E2,1.34E2,7.05E2,2.2E1,1.4E1,1.26E2,4E1],"tree_param":{"num_deleted":"0","num_feature":"12","num_nodes":"31","size_leaf_vector":"1"}},{"base_weights":[7.625281E-2,-4.318681E-2,4.7508568E1,4.3107653E0,-1.3151151E0,-8.067569E-1,5.548645E1,1.0678731E2,3.6808872E0,-1.9100102E0,9.663814E0,7.133797E-1,2.9240518E0,2.9644817E-1,1.5276977E1,-2.9334128E-2,5.127341E-1,2.2660445E-1,-1.4079478E-1,-5.777028E-1,1.3922246E0],"categories":[],"categories_nodes":[],"categories_segments":[],"categories_sizes":[],"default_left":[0,0,0,0,0,0,0,0,0,0,0,0,0,0,0,0,0,0,0,0,0],"id":42,"left_children":[1,3,5,7,9,-1,11,13,15,17,19,-1,-1,-1,-1,-1,-1,-1,-1,-1,-1],"loss_changes":[2.4810389E4,2.420082E4,6.4804473E3,6.338008E4,2.2107355E4,0E0,3.9995117E2,1.1846338E5,2.7583217E4,1.8739852E4,6.7443125E4,0E0,0E0,0E0,0E0,0E0,0E0,0E0,0E0,0E0,0E0],"parents":[2147483647,0,0,1,1,2,2,3,3,4,4,6,6,7,7,8,8,9,9,10,10],"right_children":[2,4,6,8,10,-1,12,14,16,18,20,-1,-1,-1,-1,-1,-1,-1,-1,-1,-1],"split_conditions":[3.13E0,-6.4278764E-1,1.3940242E4,-6.862416E-1,3.06E1,-8.067569E-1,1.4683859E4,1.538E3,1E-2,2.5E0,9.84E0,7.133797E-1,2.9240518E0,2.9644817E-1,1.5276977E1,-2.9334128E-2,5.127341E-1,2.2660445E-1,-1.4079478E-1,-5.777028E-1,1.3922246E0],"split_indices":[4,11,7,10,9,0,7,2,4,6,5,0,0,0,0,0,0,0,0,0,0],"split_type":[0,0,0,0,0,0,0,0,0,0,0,0,0,0,0,0,0,0,0,0,0],"sum_hessian":[4.378E3,4.368E3,1E1,9.87E2,3.381E3,1E0,9E0,5E0,9.82E2,3.208E3,1.73E2,1E0,8E0,4E0,1E0,5.96E2,3.86E2,3.95E2,2.813E3,8E1,9.3E1],"tree_param":{"num_deleted":"0","num_feature":"12","num_nodes":"21","size_leaf_vector":"1"}},{"base_weights":[7.6959066E-2,-4.1058226E0,1.3760765E0,1.1628375E1,-4.426365E0,2.6264439E1,9.9008536E-1,4.2226555E1,-3.4260013E0,-4.823055E0,2.2226899E0,3.5310913E1,-3.564353E1,-7.715281E-1,5.1833005E0,-3.569048E-1,4.0517287E0,-9.2916936E-1,9.5598035E-2,-4.822254E-1,-2.0942509E-1,1.0165862E0,-4.3024585E-1,3.010444E0,-9.644352E-2,1.5885925E-2,-2.0845013E0,-9.31151E-2,3.1915963E-1,1.4024858E0,1.825767E-1],"categories":[],"categories_nodes":[],"categories_segments":[],"categories_sizes":[],"default_left":[0,0,0,0,0,0,0,0,0,0,0,0,0,0,0,0,0,0,0,0,0,0,0,0,0,0,0,0,0,0,0],"id":43,"left_children":[1,3,5,7,9,11,13,15,17,19,21,23,25,27,29,-1,-1,-1,-1,-1,-1,-1,-1,-1,-1,-1,-1,-1,-1,-1,-1],"loss_changes":[2.3800803E4,5.2866035E3,3.2079541E4,9.818035E3,2.6958086E3,2.9821098E4,2.4321428E4,1.3988644E4,1.2491741E3,2.899752E3,1.1547448E4,4.18399E4,1.5353223E3,1.8109785E4,3.401291E4,0E0,0E0,0E0,0E0,0E0,0E0,0E0,0E0,0E0,0E0,0E0,0E0,0E0,0E0,0E0,0E0],"parents":[2147483647,0,0,1,1,2,2,3,3,4,4,5,5,6,6,7,7,8,8,9,9,10,10,11,11,12,12,13,13,14,14],"right_children":[2,4,6,8,10,12,14,16,18,20,22,24,26,28,30,-1,-1,-1,-1,-1,-1,-1,-1,-1,-1,-1,-1,-1,-1,-1,-1],"split_conditions":[1.028E3,-2.5E0,1.1E4,3E0,2.638889E1,2.1666666E1,2E-2,1.89E1,-5.214352E-1,-8.660254E-1,-4.9845885E-2,-4.3388373E-1,8.05E2,1.499E1,2.5E0,-3.569048E-1,4.0517287E0,-9.2916936E-1,9.5598035E-2,-4.822254E-1,-2.0942509E-1,1.0165862E0,-4.3024585E-1,3.010444E0,-9.644352E-2,1.5885925E-2,-2.0845013E0,-9.31151E-2,3.1915963E-1,1.4024858E0,1.825767E-1],"split_indices":[3,6,8,1,6,6,4,9,11,11,10,11,2,5,6,0,0,0,0,0,0,0,0,0,0,0,0,0,0,0,0],"split_type":[0,0,0,0,0,0,0,0,0,0,0,0,0,0,0,0,0,0,0,0,0,0,0,0,0,0,0,0,0,0,0],"sum_hessian":[4.378E3,1.037E3,3.341E3,2E1,1.017E3,5E1,3.291E3,6E0,1.4E1,9.6E2,5.7E1,4.4E1,6E0,2.318E3,9.73E2,3E0,3E0,3E0,1.1E1,1.1E2,8.5E2,2.1E1,3.6E1,2.6E1,1.8E1,1E0,5E0,2.012E3,3.06E2,6E1,9.13E2],"tree_param":{"num_deleted":"0","num_feature":"12","num_nodes":"31","size_leaf_vector":"1"}},{"base_weights":[7.434712E-2,-3.96637E0,1.2884598E0,1.1183207E1,-4.283078E0,2.4967794E1,9.241034E-1,4.064306E1,-3.3102727E0,-5.9358025E0,-2.6049562E0,3.3610126E1,-3.415687E1,-7.3999715E-1,4.866323E0,-3.4352088E-1,3.8997886E0,-8.9432555E-1,9.121646E-2,-2.1096833E-1,-5.8477634E-1,1.7387089E-1,-3.3426595E-1,2.8654966E0,-9.187514E-2,1.5488768E-2,-1.9976472E0,3.908707E-2,-2.7697337E-1,9.6807934E-2,7.868261E-1],"categories":[],"categories_nodes":[],"categories_segments":[],"categories_sizes":[],"default_left":[0,0,0,0,0,0,0,0,0,0,0,0,0,0,0,0,0,0,0,0,0,0,0,0,0,0,0,0,0,0,0],"id":44,"left_children":[1,3,5,7,9,11,13,15,17,19,21,23,25,27,29,-1,-1,-1,-1,-1,-1,-1,-1,-1,-1,-1,-1,-1,-1,-1,-1],"loss_changes":[2.1487984E4,4.9034707E3,2.9035078E4,9.101031E3,2.7358223E3,2.7207734E4,2.177051E4,1.2959165E4,1.1552786E3,4.8838633E3,1.2283484E4,3.790989E4,1.4107744E3,1.7050791E4,3.1343225E4,0E0,0E0,0E0,0E0,0E0,0E0,0E0,0E0,0E0,0E0,0E0,0E0,0E0,0E0,0E0,0E0],"parents":[2147483647,0,0,1,1,2,2,3,3,4,4,5,5,6,6,7,7,8,8,9,9,10,10,11,11,12,12,13,13,14,14],"right_children":[2,4,6,8,10,12,14,16,18,20,22,24,26,28,30,-1,-1,-1,-1,-1,-1,-1,-1,-1,-1,-1,-1,-1,-1,-1,-1],"split_conditions":[7.1E2,-2.5E0,1.1E4,3E0,7E0,2.1666666E1,2E-2,1.89E1,-5.214352E-1,2.0833334E1,9E0,-4.3388373E-1,8.05E2,2.89E1,2.94E1,-3.4352088E-1,3.8997886E0,-8.9432555E-1,9.121646E-2,-2.1096833E-1,-5.8477634E-1,1.7387089E-1,-3.3426595E-1,2.8654966E0,-9.187514E-2,1.5488768E-2,-1.9976472E0,3.908707E-2,-2.7697337E-1,9.6807934E-2,7.868261E-1],"split_indices":[2,6,8,1,0,6,4,9,11,6,0,11,2,9,9,0,0,0,0,0,0,0,0,0,0,0,0,0,0,0,0],"split_type":[0,0,0,0,0,0,0,0,0,0,0,0,0,0,0,0,0,0,0,0,0,0,0,0,0,0,0,0,0,0,0],"sum_hessian":[4.378E3,1.011E3,3.367E3,2E1,9.91E2,5E1,3.317E3,6E0,1.4E1,4.98E2,4.93E2,4.4E1,6E0,2.333E3,9.84E2,3E0,3E0,3E0,1.1E1,3.85E2,1.13E2,1.98E2,2.95E2,2.6E1,1.8E1,1E0,5E0,1.772E3,5.61E2,7.76E2,2.08E2],"tree_param":{"num_deleted":"0","num_feature":"12","num_nodes":"31","size_leaf_vector":"1"}},{"base_weights":[7.136821E-2,2.397627E0,-1.9271121E0,-9.497287E0,4.041107E0,-2.745972E0,6.7711687E0,-2.656673E0,-1.2901395E1,6.803713E0,-4.1817307E0,-5.158563E0,1.0341514E0,3.0934946E1,1.3769716E0,-3.5460857E-1,4.9820623E-1,-8.229362E-1,-3.4685633E-1,7.8387335E-2,6.3620645E-1,2.6525705E0,-2.8047726E-1,-3.2904395E-1,1.3325322E-1,-3.034028E-1,1.581059E-1,3.2255694E-1,3.3207226E0,2.7421257E-1,-6.121977E-1],"categories":[],"categories_nodes":[],"categories_segments":[],"categories_sizes":[],"default_left":[0,0,0,0,0,0,0,0,0,0,0,0,0,0,0,0,0,0,0,0,0,0,0,0,0,0,0,0,0,0,0],"id":45,"left_children":[1,3,5,7,9,11,13,15,17,19,21,23,25,27,29,-1,-1,-1,-1,-1,-1,-1,-1,-1,-1,-1,-1,-1,-1,-1,-1],"loss_changes":[2.0362514E4,3.9605668E4,1.679961E4,5.694129E3,4.0441023E4,1.9649586E4,2.6417271E4,4.716968E3,3.3653906E3,4.127085E4,3.69074E4,1.4650426E4,1.2714323E4,3.1712469E4,9.409956E3,0E0,0E0,0E0,0E0,0E0,0E0,0E0,0E0,0E0,0E0,0E0,0E0,0E0,0E0,0E0,0E0],"parents":[2147483647,0,0,1,1,2,2,3,3,4,4,5,5,6,6,7,7,8,8,9,9,10,10,11,11,12,12,13,13,14,14],"right_children":[2,4,6,8,10,12,14,16,18,20,22,24,26,28,30,-1,-1,-1,-1,-1,-1,-1,-1,-1,-1,-1,-1,-1,-1,-1,-1],"split_conditions":[-2.2252093E-1,2.28E1,2.4722221E1,2E0,9E0,6.156615E-1,2.5277779E1,4.1666665E0,6E0,1.22E3,-6.862416E-1,8E-2,7.83E0,1.22E3,2.8333334E1,-3.5460857E-1,4.9820623E-1,-8.229362E-1,-3.4685633E-1,7.8387335E-2,6.3620645E-1,2.6525705E0,-2.8047726E-1,-3.2904395E-1,1.3325322E-1,-3.034028E-1,1.581059E-1,3.2255694E-1,3.3207226E0,2.7421257E-1,-6.121977E-1],"split_indices":[11,9,6,0,0,11,6,6,1,2,10,4,5,2,6,0,0,0,0,0,0,0,0,0,0,0,0,0,0,0,0],"split_type":[0,0,0,0,0,0,0,0,0,0,0,0,0,0,0,0,0,0,0,0,0,0,0,0,0,0,0,0,0,0,0],"sum_hessian":[4.378E3,2.023E3,2.355E3,2.45E2,1.778E3,2.153E3,2.02E2,8.2E1,1.63E2,1.331E3,4.47E2,1.314E3,8.39E2,3.6E1,1.66E2,6.1E1,2.1E1,1.01E2,6.2E1,7.07E2,6.24E2,1E1,4.37E2,1.112E3,2.02E2,1.93E2,6.46E2,2.2E1,1.4E1,1.28E2,3.8E1],"tree_param":{"num_deleted":"0","num_feature":"12","num_nodes":"31","size_leaf_vector":"1"}},{"base_weights":[6.894728E-2,6.3186707E0,-6.537841E-1,3.7263246E0,3.823217E1,-2.5021455E0,2.5741966E0,-6.9653997E0,7.4838996E0,5.607639E1,5.093322E0,-3.5589259E0,6.30055E0,3.577387E1,1.1698593E0,-5.5049717E-2,-7.1217585E-1,2.343672E-1,1.1199161E0,1.0621111E0,3.7232168E0,1.2520515E0,-1.5915608E0,-1.5098017E-1,-7.7580816E-1,7.678463E-1,-3.3236346E-1,2.952165E0,-5.6951064E-1,1.1502694E0,-9.050006E-3],"categories":[],"categories_nodes":[],"categories_segments":[],"categories_sizes":[],"default_left":[0,0,0,0,0,0,0,0,0,0,0,0,0,0,0,0,0,0,0,0,0,0,0,0,0,0,0,0,0,0,0],"id":46,"left_children":[1,3,5,7,9,11,13,15,17,19,21,23,25,27,29,-1,-1,-1,-1,-1,-1,-1,-1,-1,-1,-1,-1,-1,-1,-1,-1],"loss_changes":[1.9783508E4,3.7417336E4,2.343082E4,1.6965785E4,1.981984E4,2.3250807E4,6.662981E4,4.679319E3,1.2908223E4,1.2509836E4,1.0372365E4,1.4333988E4,3.1527848E4,6.432642E4,4.0503176E4,0E0,0E0,0E0,0E0,0E0,0E0,0E0,0E0,0E0,0E0,0E0,0E0,0E0,0E0,0E0,0E0],"parents":[2147483647,0,0,1,1,2,2,3,3,4,4,5,5,6,6,7,7,8,8,9,9,10,10,11,11,12,12,13,13,14,14],"right_children":[2,4,6,8,10,12,14,16,18,20,22,24,26,28,30,-1,-1,-1,-1,-1,-1,-1,-1,-1,-1,-1,-1,-1,-1,-1,-1],"split_conditions":[2.5E0,2.5E1,2E1,1.94E1,1.407E3,1.678E1,2.0277779E1,-5.555556E-1,1.6666666E0,1.043E3,3.8E-1,1.9444445E1,7.7777777E0,1.845E3,9.674286E3,-5.5049717E-2,-7.1217585E-1,2.343672E-1,1.1199161E0,1.0621111E0,3.7232168E0,1.2520515E0,-1.5915608E0,-1.5098017E-1,-7.7580816E-1,7.678463E-1,-3.3236346E-1,2.952165E0,-5.6951064E-1,1.1502694E0,-9.050006E-3],"split_indices":[6,9,6,9,2,5,6,6,6,3,4,6,6,3,7,0,0,0,0,0,0,0,0,0,0,0,0,0,0,0,0],"split_type":[0,0,0,0,0,0,0,0,0,0,0,0,0,0,0,0,0,0,0,0,0,0,0,0,0,0,0,0,0,0,0],"sum_hessian":[4.378E3,4.53E2,3.925E3,4.2E2,3.3E1,2.496E3,1.429E3,1.09E2,3.11E2,2.1E1,1.2E1,2.229E3,2.67E2,5.7E1,1.372E3,6.1E1,4.8E1,2.63E2,4.8E1,8E0,1.3E1,8E0,4E0,2.134E3,9.5E1,1.57E2,1.1E2,3.8E1,1.9E1,7.9E1,1.293E3],"tree_param":{"num_deleted":"0","num_feature":"12","num_nodes":"31","size_leaf_vector":"1"}},{"base_weights":[6.734174E-2,3.9254427E0,-1.0564411E0,1.01732796E2,3.3244565E0,-1.6051582E0,9.100898E0,3.4084582E0,1.4833862E1,-1.0637821E1,5.042038E0,-1.7435877E0,3.892443E1,-1.063731E1,2.6012537E1,-9.4480276E-1,2.3156629E0,-6.249947E-1,1.5110428E0,5.7456255E-1,-1.04214646E-1,2.0438741E-1,-1.2817912E-1,-9.685879E-1,2.3345613E0,-6.507204E-1,3.7707615E-1,4.2971325E0,4.32691E-1],"categories":[],"categories_nodes":[],"categories_segments":[],"categories_sizes":[],"default_left":[0,0,0,0,0,0,0,0,0,0,0,0,0,0,0,0,0,0,0,0,0,0,0,0,0,0,0,0,0],"id":47,"left_children":[1,3,5,7,9,11,13,15,-1,17,19,21,23,25,27,-1,-1,-1,-1,-1,-1,-1,-1,-1,-1,-1,-1,-1,-1],"loss_changes":[1.8990035E4,5.773731E4,1.8919943E4,1.139955E5,2.3627305E4,1.812804E4,5.8358848E4,5.659991E3,0E0,8.594597E3,4.0284234E4,1.5354841E4,5.8850117E3,3.5983906E3,9.7045375E4,0E0,0E0,0E0,0E0,0E0,0E0,0E0,0E0,0E0,0E0,0E0,0E0,0E0,0E0],"parents":[2147483647,0,0,1,1,2,2,3,3,4,4,5,5,6,6,7,7,9,9,10,10,11,11,12,12,13,13,14,14],"right_children":[2,4,6,8,10,12,14,16,-1,18,20,22,24,26,28,-1,-1,-1,-1,-1,-1,-1,-1,-1,-1,-1,-1,-1,-1],"split_conditions":[-6.4278764E-1,-6.862416E-1,3.06E1,1.538E3,2.28E1,3.13E0,9.84E0,1.118E3,1.4833862E1,2.318E3,2.89E1,2.5E0,1.3940242E4,2.861111E1,-5.971586E-1,-9.4480276E-1,2.3156629E0,-6.249947E-1,1.5110428E0,5.7456255E-1,-1.04214646E-1,2.0438741E-1,-1.2817912E-1,-9.685879E-1,2.3345613E0,-6.507204E-1,3.7707615E-1,4.2971325E0,4.32691E-1],"split_indices":[11,10,9,2,9,4,5,2,0,3,9,6,7,6,11,0,0,0,0,0,0,0,0,0,0,0,0,0,0],"split_type":[0,0,0,0,0,0,0,0,0,0,0,0,0,0,0,0,0,0,0,0,0,0,0,0,0,0,0,0,0],"sum_hessian":[4.378E3,9.87E2,3.391E3,5E0,9.82E2,3.218E3,1.73E2,4E0,1E0,1.07E2,8.75E2,3.208E3,1E1,8E1,9.3E1,3E0,1E0,1.03E2,4E0,4.59E2,4.16E2,3.95E2,2.813E3,1E0,9E0,7.1E1,9E0,2E1,7.3E1],"tree_param":{"num_deleted":"0","num_feature":"12","num_nodes":"29","size_leaf_vector":"1"}},{"base_weights":[6.933194E-2,-3.6126444E0,1.2129053E0,1.0523382E1,-3.9007034E0,2.2829313E1,8.7765324E-1,3.850088E0,3.5997314E0,-5.31891E0,-2.3915293E0,3.1100332E1,-3.360286E1,2.2737905E-1,9.533793E0,2.5718114E0,-2.1474147E-1,-1.7793022E-1,-5.576169E-1,1.5856712E-1,-3.0553943E-1,2.6414392E0,-7.068996E-2,-9.959697E-4,-1.9598349E0,-3.6150485E-2,3.4200066E-1,2.2979541E-1,4.000188E0],"categories":[],"categories_nodes":[],"categories_segments":[],"categories_sizes":[],"default_left":[0,0,0,0,0,0,0,0,0,0,0,0,0,0,0,0,0,0,0,0,0,0,0,0,0,0,0,0,0],"id":48,"left_children":[1,3,5,7,9,11,13,15,-1,17,19,21,23,25,27,-1,-1,-1,-1,-1,-1,-1,-1,-1,-1,-1,-1,-1,-1],"loss_changes":[1.8442645E4,4.267792E3,2.4199254E4,8.337344E3,2.166127E3,2.4849395E4,1.8528057E4,7.972614E3,0E0,5.3410684E3,1.026081E4,3.1866367E4,1.3142212E3,1.9254592E4,7.9666E4,0E0,0E0,0E0,0E0,0E0,0E0,0E0,0E0,0E0,0E0,0E0,0E0,0E0,0E0],"parents":[2147483647,0,0,1,1,2,2,3,3,4,4,5,5,6,6,7,7,9,9,10,10,11,11,12,12,13,13,14,14],"right_children":[2,4,6,8,10,12,14,16,-1,18,20,22,24,26,28,-1,-1,-1,-1,-1,-1,-1,-1,-1,-1,-1,-1,-1,-1],"split_conditions":[1.028E3,-2.5E0,1.1E4,7E-2,7E0,2.1666666E1,5.4E-1,7.83E0,3.5997314E0,2.0833334E1,9E0,-4.3388373E-1,8.05E2,2.4444445E1,2.318E3,2.5718114E0,-2.1474147E-1,-1.7793022E-1,-5.576169E-1,1.5856712E-1,-3.0553943E-1,2.6414392E0,-7.068996E-2,-9.959697E-4,-1.9598349E0,-3.6150485E-2,3.4200066E-1,2.2979541E-1,4.000188E0],"split_indices":[3,6,8,4,0,6,4,5,0,6,0,11,2,6,3,0,0,0,0,0,0,0,0,0,0,0,0,0,0],"split_type":[0,0,0,0,0,0,0,0,0,0,0,0,0,0,0,0,0,0,0,0,0,0,0,0,0,0,0,0,0],"sum_hessian":[4.378E3,1.037E3,3.341E3,2E1,1.017E3,5E1,3.291E3,1.9E1,1E0,5.23E2,4.94E2,4.4E1,6E0,3.062E3,2.29E2,2E0,1.7E1,4.03E2,1.2E2,1.98E2,2.96E2,2.6E1,1.8E1,1E0,5E0,2.678E3,3.84E2,2.15E2,1.4E1],"tree_param":{"num_deleted":"0","num_feature":"12","num_nodes":"29","size_leaf_vector":"1"}},{"base_weights":[6.8199314E-2,-1.7981735E0,2.1547496E0,-2.9698782E0,2.9773827E0,5.132852E-1,1.4089425E1,-2.4179409E0,-1.1547669E1,3.790423E1,6.908346E-1,8.360072E0,-2.0265937E0,9.437461E1,7.453615E0,1.0310665E0,-1.3147505E-1,6.0146224E-1,-6.862289E-1,5.155019E-1,2.757641E0,7.373725E-3,1.671331E0,2.934701E-1,5.805863E0,-3.2430848E-1,2.2493958E-2,2.085563E-1,7.979898E0,2.4061537E0,1.4819238E-1],"categories":[],"categories_nodes":[],"categories_segments":[],"categories_sizes":[],"default_left":[0,0,0,0,0,0,0,0,0,0,0,0,0,0,0,0,0,0,0,0,0,0,0,0,0,0,0,0,0,0,0],"id":49,"left_children":[1,3,5,7,9,11,13,15,17,19,21,23,25,27,29,-1,-1,-1,-1,-1,-1,-1,-1,-1,-1,-1,-1,-1,-1,-1,-1],"loss_changes":[1.7056932E4,1.2945734E4,4.05056E4,8.763866E3,3.6390848E4,3.6269406E4,1.324859E5,8.564557E3,5.9134697E3,1.2758277E4,7.6258306E3,1.1875092E5,1.5188444E4,1.1111839E5,4.2219742E4,0E0,0E0,0E0,0E0,0E0,0E0,0E0,0E0,0E0,0E0,0E0,0E0,0E0,0E0,0E0,0E0],"parents":[2147483647,0,0,1,1,2,2,3,3,4,4,5,5,6,6,7,7,8,8,9,9,10,10,11,11,12,12,13,13,14,14],"right_children":[2,4,6,8,10,12,14,16,18,20,22,24,26,28,30,-1,-1,-1,-1,-1,-1,-1,-1,-1,-1,-1,-1,-1,-1,-1,-1],"split_conditions":[1.222E3,8E-2,2.4722221E1,1.142E3,2.2222223E0,1.834E3,2.5E1,9E3,-8.1284666E-1,1.163E1,3.17E1,1.82E3,9.62E0,1.559E3,9.674286E3,1.0310665E0,-1.3147505E-1,6.0146224E-1,-6.862289E-1,5.155019E-1,2.757641E0,7.373725E-3,1.671331E0,2.934701E-1,5.805863E0,-3.2430848E-1,2.2493958E-2,2.085563E-1,7.979898E0,2.4061537E0,1.4819238E-1],"split_indices":[2,4,6,2,6,3,6,8,10,5,9,3,5,2,7,0,0,0,0,0,0,0,0,0,0,0,0,0,0,0,0],"split_type":[0,0,0,0,0,0,0,0,0,0,0,0,0,0,0,0,0,0,0,0,0,0,0,0,0,0,0,0,0,0,0],"sum_hessian":[4.378E3,2.311E3,2.067E3,1.856E3,4.55E2,1.818E3,2.49E2,1.745E3,1.11E2,2.7E1,4.28E2,4.44E2,1.374E3,1.8E1,2.31E2,1.5E1,1.73E3,9E0,1.02E2,1.1E1,1.6E1,4.22E2,6E0,4.35E2,9E0,4.9E2,8.84E2,8E0,1E1,2.2E1,2.09E2],"tree_param":{"num_deleted":"0","num_feature":"12","num_nodes":"31","size_leaf_vector":"1"}},{"base_weights":[6.9883436E-2,3.6922138E0,-9.852263E-1,9.89287E1,3.1071565E0,-1.4919602E0,8.395014E0,3.0075805E0,1.4463358E1,-1.00628E1,4.727303E0,-1.6151662E0,3.4586224E1,-1.0178926E1,2.431091E1,-9.3478435E-1,2.2455163E0,-7.4378717E-1,2.8443107E-1,5.3812927E-1,-9.7082935E-2,-4.9426508E-1,-5.3987306E-2,-1.0109714E0,2.1044366E0,-6.2106335E-1,3.4919062E-1,4.4380122E-1,4.2385464E0],"categories":[],"categories_nodes":[],"categories_segments":[],"categories_sizes":[],"default_left":[0,0,0,0,0,0,0,0,0,0,0,0,0,0,0,0,0,0,0,0,0,0,0,0,0,0,0,0,0],"id":50,"left_children":[1,3,5,7,9,11,13,15,-1,17,19,21,23,25,27,-1,-1,-1,-1,-1,-1,-1,-1,-1,-1,-1,-1,-1,-1],"loss_changes":[1.6739982E4,5.4742773E4,1.6135672E4,1.08674875E5,2.1022094E4,1.4364473E4,5.1685492E4,5.3867617E3,0E0,8.272177E3,3.5279074E4,1.4198767E4,5.3739893E3,3.2040078E3,8.696775E4,0E0,0E0,0E0,0E0,0E0,0E0,0E0,0E0,0E0,0E0,0E0,0E0,0E0,0E0],"parents":[2147483647,0,0,1,1,2,2,3,3,4,4,5,5,6,6,7,7,9,9,10,10,11,11,12,12,13,13,14,14],"right_children":[2,4,6,8,10,12,14,16,-1,18,20,22,24,26,28,-1,-1,-1,-1,-1,-1,-1,-1,-1,-1,-1,-1,-1,-1],"split_conditions":[-6.4278764E-1,